779 300
. -0.00013912136 0.0006457974 0.0014756257 0.003246667 -0.0031583218 -0.0031368912 0.0025876001 0.00421597 -0.0014993518 -0.0015566112 0.002548991 -0.0009540508 -0.0013967198 0.0019112926 -0.00214447 -0.0011257107 0.0012904658 0.00030275472 -0.0029124971 -0.003262684 0.002064646 0.0018245304 0.0027339594 0.00030309687 0.0029792327 -0.0009481451 -0.0009833252 0.0017908133 -0.0029004565 -0.0017653104 -0.0026818546 -0.0008991349 0.003189585 -0.0027918292 -0.0011616396 -0.00042552888 0.003015056 -0.0025444445 7.479726e-05 -0.0015274227 -0.0036395441 0.0017455601 -0.0030682264 -0.0018994486 0.00054208876 0.00050152704 -0.0023691095 0.0036346472 0.0015663172 0.0036710463 -0.0029157333 0.0018728505 -0.0018329066 0.00015187661 0.002878937 -0.0009585391 0.0016682339 -0.0025337988 -0.0009041023 0.0032860085 -0.0008286556 -0.0001981754 -0.0013471755 -0.0023172789 -0.0005951007 0.0011716068 -0.00075435895 0.0019198678 -0.0012772813 0.0007053722 0.001971624 0.0031150535 0.00023149003 -0.003485049 0.0013433354 0.0003406331 0.0019371104 -1.276193e-05 -0.0011054946 -0.0025318814 -0.00082678493 0.0004775025 0.002143659 0.0033223606 -0.0018293101 0.0007136401 0.0016912777 -0.0017464518 -0.0005552286 0.0023936299 0.0009605855 -0.00031087335 0.001477735 0.00022470842 0.0038368795 0.0020861397 -0.0023922226 -0.002936162 -1.3327584e-05 0.0025143432 -0.0030117563 0.0014658859 0.0018394418 0.0018961773 0.0027889719 -0.002314556 8.034285e-05 0.002172466 -0.0016409664 -0.0019201735 -0.0009087396 -0.003114283 -0.0020579759 0.0027090106 0.0017533811 0.0025498122 0.002044083 0.0025425637 -0.0007630635 -0.0006102319 0.0012032579 -0.0012552863 0.0030056597 -0.0034748646 0.0019425489 0.00090894155 -0.0013574939 0.0010441868 -0.0005155594 0.0023997326 0.0035196752 -0.0008848564 -0.00023832948 -0.0023918347 0.0016435337 0.0012071801 0.0021182143 0.0017033187 0.0027193497 0.002425527 0.0030678806 -0.0028193397 -0.0031705662 0.00033622826 -0.00068402244 0.002323366 0.0012322301 -0.00080188544 0.00071263144 0.00026913534 0.0025730275 -0.003909524 -0.0003968314 0.00087362685 -0.00029444435 0.0031801502 0.0027617007 0.0016084961 -0.00019775647 0.003170671 -0.0025567554 0.001583193 -0.002458781 -0.00091229135 0.0003989786 0.0020861872 0.002854793 -0.0019565062 0.0026380727 0.0029997565 -0.0015359885 -0.0028176415 0.0020076728 0.002538446 -0.00019897718 -0.0021759998 -0.0024264578 -0.0011988212 0.0018897321 -0.0015904028 -0.0035095518 0.0017209905 0.0014066602 -0.0025676817 0.00043873853 -0.00054085755 0.00029789345 -0.0028710533 0.000821389 -0.0019720863 0.00035473472 -0.00049194146 0.00017294106 -0.0029218076 -0.0006424246 0.000546197 0.0016591086 -0.0013124794 -0.0030328552 0.0015155477 -0.00049359683 0.0013448677 -0.0024775572 -0.00083422044 0.002415589 0.0023321884 -0.0014840796 0.0006438424 -0.0030833993 0.0018290634 -0.0012469995 -0.0013261184 0.0029276656 0.00016315524 0.002869297 -0.0028854837 0.0015545806 0.0022915846 -0.00353822 -0.0020868543 -0.0018989304 -0.001727638 -0.0016951998 -0.0030030513 0.002689065 -0.0018844688 0.0030318007 0.0018279522 -0.0027883365 0.0017652153 0.0023030967 -0.002605958 -0.0032593687 -0.0005237881 -0.0030954927 -0.00027268296 -0.00018283504 0.001331615 0.00066263723 -0.001124811 -0.0017985265 0.00030592104 -0.00091798324 0.0022934005 0.0013396025 0.0010379308 0.00053608103 -0.0006724481 -0.0014942491 0.00018495259 0.00052804797 -0.00085988187 -0.002225359 -0.0026301711 -0.0038127694 -0.0021146948 9.414355e-05 -0.0011022926 -0.0030028888 -0.0015025213 0.001978304 -0.00093287346 0.0029658384 -1.3738867e-05 -0.00280902 0.003113915 0.0027147082 0.0018991692 -0.002902509 0.002013233 0.0011558746 0.0020135266 0.0014033158 0.00048502674 -0.00025840805 0.0031219688 0.003575278 0.0011095357 -0.001533906 -0.00015698928 0.0011299232 -0.0027518268 -0.003020579 9.5000236e-05 0.00036811098 -0.0020693461 -0.0024133476 -0.002251742 0.0029207487 0.0005763253 -0.001830118 0.002647718 0.0037302223 -0.0014664078 0.003249928 0.002667133 0.0020792976 -0.00023046594 0.0032247684 -0.0025153514
israel -0.0027417166 0.0033268218 -0.00018373916 -0.00055069674 0.0014623005 -0.0016686164 0.0011080634 0.0028552897 0.0021090226 -0.0026627248 0.003152151 0.0013871405 0.0014135684 -0.0022183273 0.002588635 -0.0009738212 0.0030711791 -0.0017940693 -0.0027959074 0.0022270363 0.00035659378 -0.0006619599 0.0033646538 0.0031681617 -0.002878054 0.0009458554 0.0017628912 0.0012395817 0.00050313683 -7.732023e-05 0.0001723429 -0.0015649087 -0.002393587 -0.00084120315 0.001097449 0.0030444523 0.0032698845 -0.0022579555 -0.0030791177 0.0032869324 0.0009489809 0.0017512146 0.002039366 -0.0011573375 0.0026929404 0.0011756554 0.0010359202 -0.0005708697 -0.0010793237 -0.0005491628 0.0013639504 0.00020305463 -0.0033734113 -0.0032634416 -0.0020508722 0.00019944966 0.000737136 0.0030280936 0.001994624 -0.0014134435 -4.243983e-05 0.0014957583 0.0025821098 -0.0002862656 0.0014018533 -0.001798291 -0.00051875145 0.0026976888 -0.00092526636 -0.0032662817 0.0019775564 -0.0011887368 -8.0699036e-05 0.0031489749 -0.00079585455 -0.001523571 -0.0020568161 0.0024200953 -0.0020207227 0.0009124748 -0.0019708497 0.0018373304 0.0015869829 0.0013289325 -0.0004457702 -0.00088614266 0.0028335734 0.0016419312 -0.00048531385 -0.0031148081 -0.002322914 -0.00053081487 -0.00014871114 -0.0008146384 0.0034474842 3.5260422e-05 0.0022611136 -0.002756916 -0.0009581129 -0.0016762196 -0.0024399422 0.0004880643 -0.0023346154 -0.00073871785 0.0013828347 0.0017954337 0.00025268647 0.00080486736 -0.0016840382 0.0024848206 -0.0024565519 0.0014354574 -0.0028238301 0.0007670391 -0.0013365409 -0.0013702618 -0.0010994705 0.0019028763 0.0021986018 -0.0018775447 0.0004556109 -0.0026988082 0.0027078772 0.0030123591 -0.0010834538 0.00025591344 0.0003666595 0.00164036 -0.0028514424 0.0002477408 0.0023919882 0.0009845714 0.00038620707 -0.0033389064 0.0029598821 -0.002006135 -0.0010930172 0.0010173944 -0.00046940448 0.00014098654 0.0007571103 -0.0024779488 -0.0033001227 0.0032240069 0.0022640685 -0.0024150645 0.00077996624 -5.3063835e-05 0.0016607128 -0.0025193212 0.0013679975 0.0011452065 0.0031415066 -0.0016254237 -0.00045410573 -0.0023226961 -0.0033757752 -0.003303675 -0.00032990018 -0.001873085 0.0017726679 -0.0018122471 0.0004321054 0.0006066024 -0.0014970256 -0.0002280626 0.003440894 0.0030397822 -0.0014102942 0.003439596 -0.002009686 0.0020481409 -0.00093164784 0.0012605062 0.0010066407 0.0023487268 -0.0007793214 0.002770528 0.0026209012 -0.003337675 -0.0028081897 -0.0023211958 0.0008528302 -0.0011376981 -0.0023172977 -0.002649751 0.0029101332 0.0009015366 -0.0031495783 -0.0017735185 0.0010486668 -0.0015483157 0.0014900495 -0.0015207953 0.0009857446 -0.0028153688 0.0019918245 0.0013787583 0.00034418414 0.0010199567 -0.0031601957 0.0008259951 -0.0003704816 -0.0032305373 -0.0032406962 -0.0005292613 0.0013568033 0.0011504303 -0.0022554405 -0.0023709405 -0.0015713439 -0.0008395539 -0.0025090876 -0.0032785216 -0.00081100396 -0.0031353058 -0.002102214 -0.0023987726 -0.0010678481 -0.00074676325 -0.002749182 -0.0002902991 0.0025554853 0.002512272 -0.0023734414 -0.00137574 0.0011401222 -0.0031859616 0.00024744542 0.0023739317 0.0021188543 -0.0029703896 -0.001844218 -0.0025462592 -6.0089624e-05 0.003214711 0.0019813597 0.0017862305 0.0017641265 -0.0014602283 0.0032387706 -0.0025312605 -0.0026878135 -0.00076781 -0.00027370182 -0.0013437822 -0.00018580136 0.0025947064 -0.00024851644 -0.00033784827 0.0009799439 -0.0027588848 0.0026872803 0.0028543686 -0.0035364411 0.00079536 0.0036126575 -0.002388255 -0.0027081522 -0.0027078139 0.0030246815 -0.00012934917 0.0031222014 -0.0029461673 0.0010661014 0.0008235217 0.00032270994 0.0008145394 -0.0027811183 -0.0031166088 0.00071614276 0.0021556604 0.0026119205 0.0018743894 6.639295e-05 0.0029280812 -0.00292377 0.0010738053 -0.00016762376 0.0012426764 0.0027900918 -0.002194877 0.0017411929 -0.003116565 -0.0003079384 -0.0029740618 -0.0020574958 0.0031646306 -0.0005746088 0.0012289536 0.0028688675 0.0033214192 -0.0024518268 -0.0010912523 0.0035604958 0.0021031466 -0.00048126894 -0.0030581956 0.0011979142 -0.0022871282
jew 0.0027029347 -0.0013125264 -0.00043683389 0.00042667807 -8.721473e-05 0.00015739322 0.0021730727 0.00035763282 -0.0010370949 -0.00059428473 0.0019842787 0.00037159145 -0.00020755072 0.003034517 -0.001800414 -0.0004542411 0.0031538464 0.0022343132 0.00044781313 -0.0029769894 0.00028198148 -0.0007350798 0.0032604267 0.00040284146 0.0007537332 0.00088469294 -0.000821676 -0.0016787903 -4.8201484e-05 -0.0007939972 0.0021475758 0.0028023012 -0.00023637249 0.0008794177 -0.0021271217 0.0006289245 -0.0021929755 -0.0030884754 -0.0019409079 -0.0029724168 0.0022917741 -0.0019054498 0.0027171657 -0.002554274 0.0013066226 0.0034015563 -0.002531505 -0.0032004856 -0.0014721506 -0.000709055 -0.00014787636 -0.002835182 -0.0030258615 0.00090597535 -0.0027225015 -0.0028486939 -0.00075495016 -0.0029425474 -0.0023013728 -0.0027586322 -0.0001883113 -0.0016431408 0.0022145503 0.00057249586 -0.0011358063 0.0021493803 -0.0021530667 -0.0015171098 -0.0024929696 -0.0014649594 -0.0005393364 0.002292692 -0.00069789484 0.0015171497 0.0022472981 -0.002456069 0.0013630759 0.0021276684 -0.0010727302 0.0023206002 0.0018860403 -0.0022962077 -0.002157941 0.0011539905 -0.0005157108 -0.002011845 0.0030721596 -0.001771543 -0.0020452014 -1.4933947e-05 -0.000776672 3.118569e-05 -0.0010939576 -9.239329e-05 -4.4215205e-05 0.0004023516 0.0029089767 -0.002096651 -0.00064232957 0.0019699843 0.0026734185 -0.0013932724 0.0030166977 0.0027543772 -0.0013750979 3.6186113e-05 0.001324193 -0.0012522376 -0.0020629594 -0.0021140636 -0.0004725359 -0.00015889817 0.0014169564 -0.00073747896 0.00013882283 0.0008611218 0.0015574794 7.572375e-06 -0.0019575597 -0.003202224 0.00014907088 0.0023226463 0.00056491897 -0.0030566014 -0.002737645 0.0021840413 -0.0011847016 0.001978724 -0.0022122767 0.0028526676 -0.0021139402 0.0012549391 -0.00035674009 -0.0024161097 -0.0009829102 -0.00032228683 -0.0018692741 -0.00049082976 -0.0026643102 0.0006842865 0.0031628697 -0.00095721503 -0.00037496854 0.0013201287 0.0029977262 -0.0020433213 -0.0025415171 -0.0010558387 0.0031129466 0.00018267319 -0.0028692277 -0.00068305543 0.0030420178 -0.002633883 -0.0018108825 0.0032243426 -0.003088366 0.001098057 0.00021423677 0.0024162384 0.0028621515 -0.00079362385 -0.0016209589 0.0032054116 0.00046027833 0.002158389 -0.0030936676 0.0032124263 -0.00040035794 -0.0017837038 0.00087229453 -0.00011856652 0.0016272382 -0.00067577505 -0.0013578933 0.00077228533 0.0027630697 -0.0017644092 0.000938679 -0.0027701505 -0.002394968 -2.791783e-05 -0.0030250337 0.0008071127 0.0005426179 -0.0007539858 0.0017598615 0.0033911152 0.0027944322 -0.0007370346 0.00068313186 -0.0013094756 -0.0029360442 0.002030681 -0.00056933716 -0.0003247428 -0.00065448374 -0.0016553283 0.0013924682 -0.001405268 -0.003350354 0.0030687915 0.0013410492 0.002972247 0.0021590213 0.0009231045 0.003196259 -0.001546526 -0.0023722446 0.0013423002 0.0013342187 -0.001973168 0.0031850897 -0.001229719 0.0032847847 3.486951e-05 -0.0021734782 -0.00097160914 -0.0026698762 -0.0011066513 0.00050097593 0.0031246995 0.002979112 -0.0022616012 0.0011671175 0.0006553755 -0.00075989956 -0.0030587886 0.0001484917 -0.0025929338 0.0022718827 -0.0019994436 0.0016273936 0.0033701428 -0.0001174308 0.0015842058 -0.00058904116 0.0025173263 0.0013733708 -0.0032671627 -0.0007602018 0.0011315825 -0.00021533795 -0.00038760732 -0.0003260092 -0.00071027613 0.00021143681 0.0014765277 -0.001457862 -0.0011281684 4.6543755e-06 0.00011140655 -1.6601192e-07 -0.0016150018 0.0012110353 -0.00076996244 0.00092611933 0.00032561398 0.001747498 -0.0023557295 -0.0021241913 -0.0014235325 0.0032063387 -0.0006795384 -0.0032662617 -0.00019340875 -0.0014045459 0.0020303146 -0.0033710378 0.00096299907 -0.003133551 0.0004924955 0.0019936687 0.002428847 -0.0023010506 -0.0019175642 -0.0021559391 -0.002677394 -0.0033626365 -0.0007584785 -5.880083e-05 -0.0023730847 0.002176695 0.00042036953 0.0019149652 0.00042962094 8.594874e-06 -0.0024192743 -0.000695946 0.0016378378 -0.0017794004 0.0006036947 0.0011773136 -0.0005422868 0.003501388 0.0030578629 0.00085108686 0.0022811815 0.0021343408 -0.0019154538
the -0.001710028 -0.0019765415 -0.002713329 0.002891249 -0.0007230372 -0.002593695 -0.0011938624 0.002217529 -0.0008895775 -0.0013629327 0.00057200814 -0.0010986382 -0.00048889284 0.00021694002 -0.0012189253 0.002609786 0.0014781274 -0.0033624915 0.0020016576 -0.0023140148 8.500603e-05 0.0015455651 -0.001493286 -0.0006974254 0.003048806 -0.0013180423 -0.0028227349 0.0030213036 -0.0008902015 -0.0017695836 0.0027870834 0.0011862635 0.0014245536 0.002971198 -0.0029948489 0.0018350236 0.0008200655 0.0011589562 0.00058710936 0.0015367053 0.0013300569 0.0020486538 -0.0011399918 -0.0016863744 9.065822e-05 0.0011017305 -0.0010067015 0.0022211468 0.0013433495 0.002823242 0.00075086823 0.0028701408 -0.00065038394 0.0026366867 0.0012511475 -0.0024544501 -0.001255884 -0.00094135455 0.0017566571 -0.00024997725 -0.0010685439 0.0024543968 0.0031491239 -0.00045864366 -0.0017557511 -0.001407317 -0.0018172908 -0.0031744947 0.00031061753 -0.0014355707 0.0009126937 0.0019812959 -0.0010642537 -0.00335121 0.00046530072 -0.0021595291 0.00056491536 -0.0011492538 0.0022765596 0.00040008244 0.0009714883 -0.0010911993 -0.00045013765 0.0029843315 0.00052667 -0.0019105733 -0.0027509579 0.00035903495 0.002369931 0.0018973637 -0.0027927388 0.0026957467 0.0014637781 0.0025602847 0.0035011969 -0.002251223 -0.002745225 0.0016967191 0.0030215182 0.0013357198 0.0023192014 -0.00043295996 0.0027131701 -0.0031690723 -0.0025557938 -0.0023188784 -0.0014555517 0.001735967 -0.001556719 -0.0027147678 0.0024715627 -0.0013661687 0.0028019983 -0.001508569 0.001591025 0.0016885941 0.0007180737 -0.0009333199 0.0011816889 -0.0029402166 -0.0007450713 -0.0007498117 0.0024999683 -0.0012427442 -0.0023215357 0.0013984531 -2.3328239e-05 -0.0013780269 0.002322097 0.0013548648 -0.0012292374 0.0005075363 0.0030241422 0.0023804512 0.0022747784 0.0016902317 0.0007202848 -0.0007720836 -0.0023231746 -0.00041191277 -0.00035452627 -0.00041328798 -0.0021434973 0.0026770427 -0.0020206268 -0.0025397697 -0.0012609914 -0.0006318887 -0.002442623 6.9634385e-05 -0.0017448255 -0.00071670476 -0.002596 0.000528533 0.0011009026 0.000146078 -0.0019280271 -0.0008238179 0.0023544766 0.0015180511 -0.0028342397 -0.0009109599 0.0003806194 0.001047245 -0.0034784856 0.0016355814 -0.0027832892 -0.002443893 0.0012190227 -0.0008100771 0.0010491789 0.0030266363 -0.0011184951 0.003255749 0.0005864707 0.003317268 0.0018925755 -0.003217336 -0.0010325202 0.0020270536 0.0017139064 0.0030821876 0.00219058 0.0024836184 -0.0032933492 0.0015026161 -0.0015398377 0.0013561744 0.0019791017 0.0013359755 0.0025039956 0.00053026946 -0.0006580766 0.0018029879 -0.0017695697 -0.00013962996 0.003079867 -0.002059794 0.0013323387 -0.0027378402 0.0030407845 0.0028641543 0.0003470706 0.001535313 0.0004019745 -0.0022341278 -0.0005808865 0.0020580406 -0.0016566247 -0.0014360591 0.0017645387 0.0007715859 -0.0007172608 -0.0010004649 0.0021570863 -0.002260024 -0.0011460509 -0.002627583 -0.0017065037 -0.003004901 -0.0012863071 -0.0028910108 0.00029817145 -0.0029274398 -0.0032948076 -0.0028600737 -0.0021716845 0.0022698417 0.0010101153 0.00031299153 -0.00077471405 -0.0025168417 -0.00012668228 0.00029654635 -2.2325887e-05 0.00041709054 0.0002329489 6.744326e-05 -0.0025848513 -0.0023300948 -0.0027334022 -0.0005365232 0.00032747127 0.0024567465 -0.000638789 -0.0009983121 0.003190885 0.00012528429 -0.0007979302 0.0030960513 0.00092050846 -0.0017889476 0.0022603227 0.0014882698 -0.0026645283 -0.00018308577 0.0005749849 0.0020609514 -0.0009494872 -0.0010302142 0.0008036776 0.00040013957 0.00048668214 -0.0010895105 -0.0021600407 0.0024405576 0.002600496 0.0028045578 -0.003142814 0.00090018904 -0.001257549 0.0033096217 0.00094780937 0.0015056081 0.0011409613 0.0023404718 -0.0017759006 0.0025419767 -0.0010538342 -0.0016268671 -0.00038101838 0.0032712228 -0.0023716532 -0.00064980844 0.002308247 -8.470946e-05 -0.0024299822 -0.002064602 0.0030170828 0.0023869297 0.0014577078 -0.0007779205 -0.0028242962 0.0012130457 0.0026297006 -0.0015041026 -0.002580597 -0.0011559194 -0.0014367778 -0.00083765417
state -0.00063529494 -0.0015338402 0.0030649863 -0.0030140572 0.0014851518 0.0015481913 -0.00031594152 0.0034771534 0.0033734073 -0.0019563567 -0.0019903805 -0.0023918957 -0.0026173696 -0.0011153383 -0.0020480182 -0.0029582388 0.00040560987 0.0009880139 0.0021209586 -0.0009079213 -0.0016329427 0.00047941008 0.0002975341 0.0027223395 0.0003677774 0.0024661475 -0.0029812185 0.0027766037 -0.00077031663 0.0027597214 -0.0025983169 0.00040182756 0.00031731205 -8.351168e-05 -0.0018353843 -0.003014629 -0.002322322 -0.0028467635 0.00067963573 0.00018338738 -0.0007620632 0.0024173148 -0.00086631195 -0.0005887133 -0.0027618976 -0.0030945605 0.0030586289 -0.0017569944 -0.0021585585 0.001952506 0.0021673685 -0.0021397516 0.00017911666 -0.0020446545 0.0005651727 -0.0012400701 -0.001080836 0.00064356654 0.0029929134 0.002294734 -0.0033400129 -0.0019953987 0.002672158 0.0007572586 -0.0014611005 0.00034352177 0.002996606 -0.00036844178 -0.0032409532 0.00053383433 0.0021395565 0.002205441 0.0016114985 -0.0020294264 -0.00016707118 2.6759319e-05 0.0013307816 -0.0025683905 -0.0027548315 0.00021411489 -0.0030545928 0.0017846839 -2.093532e-05 0.0036581007 -0.0017510612 -0.00013199619 0.002473498 -0.0014009663 -0.001490529 0.0005797781 0.00102659 -0.0009918393 0.0022611124 -0.0024979108 0.0013667557 0.000295866 0.0031156277 0.0017765409 0.0021749171 0.0027364022 -0.0032083443 0.003265943 -0.002559974 -0.00092481513 -0.0015588466 -0.0017424291 -0.0027650676 -0.0025599138 -0.0017731424 -0.00037266876 -0.0019837753 0.0019431505 -0.0032428522 -0.0016581478 0.0033741621 0.0023689065 0.002508036 0.0014393585 0.00037493077 -0.0021655783 0.0021767975 0.0009561569 0.0026435768 0.0020674116 0.0025385865 0.0028836387 -0.0032146429 -0.0024127064 0.00045734254 0.0021973592 0.0025387239 0.002042788 0.0025461202 -0.0018626977 0.0023414888 -0.0012717014 -0.0030496777 0.0029434063 0.0002953184 -0.0011466726 -0.00068386126 -0.0015722087 0.0015646473 0.0016075636 -0.0007577114 -0.0025771763 -0.0014765277 -0.00020660301 0.002112029 -0.0010691818 -3.0562445e-05 6.167257e-05 -0.002475281 0.00058262475 -0.00047089066 0.0010629281 0.0015004704 -0.0006499467 -0.00092190667 0.0028170324 0.001791926 0.0024051392 0.0011918447 0.0031751909 0.0022269958 -0.00025123428 0.0030170414 0.0015439781 0.0018633384 -0.00018482814 -0.00078383274 -0.0014085441 -0.0027713454 0.0011438016 0.0029487398 0.00300485 -0.0006711282 0.0019061939 0.0013023491 -0.0015469778 0.0005535807 -0.001674955 0.0026358373 0.0016986115 0.0010896662 0.0014507748 0.0030117196 0.0025713174 -0.00026729648 -0.0025019133 0.0027927067 0.0023937302 0.0003852962 -0.0005361236 -0.0018732089 -0.0016407858 0.002843645 -0.0012241666 -0.002066682 0.0033055157 0.0023935535 0.0031444023 0.00029646658 -0.0029028126 0.002751663 -0.0012958127 0.0018251756 0.0014096346 0.0031501206 -0.0032098037 0.0031770822 -0.0032038854 -0.0023896552 -0.003065369 -0.0017260183 0.0021780264 0.0030059975 -0.0014808467 0.0009760749 -0.0013362262 0.0027860876 0.0019283163 -0.00014874407 -0.0012785929 -0.0024006409 0.0014905111 0.0005557642 -0.000840855 0.002418135 -0.0011927868 -0.0028766461 -0.0007899573 -0.00021798223 -0.0021217389 -0.0018969753 -0.0027650446 0.003084169 0.002556618 -2.2903252e-05 0.002145939 0.0026765547 -0.0003553824 0.0019760972 0.0012462666 0.0017067628 0.00223665 -0.0015804305 -0.00064498116 0.00026840868 0.001594832 0.001091479 0.0017085175 0.0015527082 -0.0028078163 -0.0013201147 -0.002462148 0.0034952902 0.0017936768 -0.00024351403 0.001247983 -0.002368962 -0.0019974012 0.0010800278 0.0019833208 0.0011903256 0.0020093156 -0.00059242116 -0.001103251 -0.00014720381 -0.000992666 -0.0019033132 -0.0024954646 0.0021536571 -0.00042936517 -0.00035244582 -0.0025358216 0.0032335462 0.00022849318 0.00036614033 0.00077188574 -0.002236616 0.0005527034 0.0009015945 -0.0027816254 0.0016545163 0.0007566851 0.002191065 0.0017549456 -0.0009919589 -0.0022371258 0.0022552002 0.0009192163 0.0019499925 0.0020775644 0.0008231338 -0.0017256453 2.1840227e-05 0.0026113454 -0.0018840956 0.0031139501
u -0.0023879507 0.0015734126 0.00065788516 0.0025604377 -0.001684966 -0.0017419582 -0.0019113556 0.0014478447 -0.0014496826 0.0027692206 -0.0014253932 -0.0031748787 -0.0015659102 0.0020554783 -0.0022820132 -0.0019114611 -0.0023099685 0.002023845 0.0010499222 0.00091474154 -0.0011564057 0.0020585088 -0.0019217208 -0.0006453566 -0.0017208934 -0.00023580874 -0.0008660611 0.0027922434 -9.508274e-05 -0.0030119799 -0.0018572618 -0.0024889123 0.0009250571 0.0030552126 -0.0020706868 0.002818322 0.002972669 -0.002510725 -0.002931613 0.0031742014 0.002665221 -0.0015436163 -0.0022705912 0.0024761327 0.001397082 0.0028739616 -0.002472545 -0.003044832 0.0005020687 -0.003097713 -0.0016961402 -0.0010273277 0.0030938776 0.0028300586 -0.0009297089 0.0021039033 0.002772628 -0.0008252634 0.0032577557 0.0024022632 0.00061181013 -0.0014063305 -0.0016851563 -0.00094535947 0.0026106143 -0.001968439 -0.0011364993 0.0030625833 0.0010367675 0.0020027547 -0.002619534 -0.00018836888 0.0020516505 -0.0016854971 0.0024421462 0.0031335426 -0.00029408862 -0.0006294936 -0.0002680886 -0.001813835 -0.0029575946 -0.0006426932 -0.00076132617 0.0017631466 -0.0022688853 0.0018196044 -0.002368898 -0.0026621525 0.002970449 0.0029887534 -0.0010358291 0.0010345478 -0.0018540885 -0.00288483 -0.0016663754 0.002360855 0.0023220815 0.0029858528 0.0022710192 0.00235335 0.0004014842 -0.003229004 0.0015775535 -0.00017855514 0.0021886025 0.0005082879 -0.0011319015 0.0026326526 0.0003184166 5.912024e-05 -0.001771864 -0.0028959864 -0.0026389305 0.002979621 -0.0027663212 0.0030661458 -0.0031369436 -8.53816e-05 -0.00048406192 -0.003092872 0.0030204952 0.002338663 0.0010654147 0.0015378814 -5.5140987e-05 0.0031109133 0.002417357 -0.0034185625 -0.0014668552 -0.00039240243 0.0010617077 -0.0012671255 0.00043789964 -0.0027734141 0.0010356294 0.0016498087 0.0015628125 -0.001171277 -0.0029305215 -0.0032914544 -0.00015262821 -0.0025836993 -0.0022996913 0.0022012678 0.002491782 0.0006187159 -0.002861599 -0.0019934082 0.0027402728 0.0012008441 -0.0017257244 -0.0026821778 0.00015978457 0.0010934734 0.0007132303 0.0011190604 -0.0019301312 -0.0034686301 -0.0023593565 0.0002842887 0.0016531922 0.0016617489 0.00032880635 0.001968952 -0.0002844561 0.0014656921 -0.0029584523 0.0025893704 0.0021190397 0.0019797208 0.0023016196 0.0028305731 0.00029804918 -0.00045407048 0.00018566758 -0.0031158128 0.0027902129 -0.002248317 0.00286988 -0.0015208968 0.00010720436 -0.002883427 -0.0032735693 -0.002779527 -0.0025921725 0.00018387215 -0.0023193557 -0.00152014 -0.0017865269 -0.0015243298 0.002340161 0.0016186419 0.002722443 0.0022907 -0.0018459025 0.002350314 -0.0031478605 -0.0010379258 -0.0025355918 0.0013911792 0.00044151372 0.0024381215 0.00092690595 -0.0024231863 0.0025152415 -0.0020310143 0.0029140392 0.00091956276 -0.0014134838 -0.001640221 -0.0013944322 -0.002126472 0.0030697503 -0.00091083685 0.002699249 -0.0034852086 0.00064462295 -0.00073940615 0.0023156425 -0.0031325642 0.0026239313 -0.0017249341 -0.0021426154 -0.0019439461 -0.0011059121 -0.0012254172 -0.0009921443 -0.0024718088 5.3924243e-05 -5.9758888e-05 -0.00042670657 0.0012150105 -0.0027807832 -0.0009573404 0.001640666 0.0029263906 -0.0032980158 0.0024659946 0.0018297965 -0.0015582645 0.0029108664 -0.0031495045 0.0022419798 0.0017792967 0.0004190588 -0.0018662418 -0.0013639159 -0.0010523188 0.0005322062 0.0006921763 0.0024867223 0.0033349202 0.0030056916 -0.0013281644 0.0029896034 -0.0002446986 0.0018149272 0.00094914145 -0.0004889918 0.001147916 -0.0016182617 -0.0018280869 -0.00248329 0.0004468476 0.002059381 0.00027418815 0.00045550268 0.0011021112 0.0025266882 -0.0025396722 0.0007101465 -0.0024115948 0.0012453095 0.0031436519 0.0027549032 0.0022213256 0.0028043727 0.0021358337 0.00208338 0.002809975 -0.0014601881 0.0031113573 0.0015794979 -0.0006627058 0.0028230466 0.0016376246 0.0029792772 0.0010007202 0.0033237038 0.00056735217 0.0029553673 0.0014227934 0.002409328 -0.0012438564 0.0024404412 0.0026849497 -0.0006541499 -0.00074100617 0.0013496329 -0.0024077178
i 0.0032656502 -0.0031122372 -0.002238919 0.0009872279 0.0021435798 -0.0019965074 0.0010143623 0.0033715891 -0.0022175387 -0.0021027466 -0.0016557868 -0.0013550206 0.00065116707 0.0031634213 0.002038589 -1.8307943e-05 0.0009369113 0.0028071264 0.0030133813 0.001836972 0.0018752748 -0.0024886806 -0.0011615248 -0.0018931404 0.0022894482 -0.000681037 -0.0030727964 0.0025444461 0.0026954035 -0.0012193557 0.0030208768 -0.000389429 -0.0011975504 -0.0002395328 -4.205977e-05 -0.0011107093 0.001030619 0.0017475565 0.0023117638 -0.002941725 -0.000844907 -0.001801378 0.0024615426 0.0020577344 -0.0013039275 0.0009135438 -0.0019381753 0.00017877312 0.0031230333 -0.000728275 -0.001780913 -0.0023533409 -0.0011042649 -0.00031119023 0.0011849726 0.0033904826 -0.0010862137 0.0005746324 0.0033048268 0.00054332125 0.0002516104 0.0031757404 0.0031028828 0.002612559 -0.0020550627 0.0034229325 0.0018374549 0.0030312093 -0.0007358364 0.001110556 0.0023504589 -0.0012280486 0.0024067576 0.00073809235 0.0030507538 -0.00097322575 -0.0011888037 0.002143524 -0.0031132246 -0.0023139769 -0.002297949 -0.00038688473 -0.0006908244 0.0025226178 0.0030925616 -0.00027289396 0.00039265136 0.00061260455 -0.000531006 -0.0026428278 0.002599538 -0.0015419273 0.0016027021 0.003075873 0.001161463 0.001156169 0.0015124463 -0.001034661 0.0011883895 0.00023899578 0.001839421 0.0018757595 0.00065828906 0.001906361 -0.0029132 0.0021127237 0.0029827368 -0.0013480348 0.00037129206 -0.0016962601 0.00014944978 0.0008288093 0.0026510519 0.00027763084 0.0010124692 0.00046819806 0.002738398 -0.0018858229 -0.0019389769 -0.0013400015 -0.00065568025 0.0017524712 -0.002646818 -0.0009957501 -0.0028115527 0.0017200741 -0.000792106 -0.0031468363 0.0013541868 0.003035419 -0.0009492619 -0.001799772 0.0010176047 -0.00025344672 -0.0032427628 0.0028830385 -0.0024950386 -0.0017183482 -0.00102476 -0.0020009177 0.00067656586 0.0031147033 0.0014972077 0.0028075275 -8.506999e-05 0.00015215317 -0.0010881734 -0.0029703893 0.0011995556 0.0005984873 -0.0031343151 -0.001862773 -0.003327041 -0.001968372 0.0013599433 0.0029681756 0.001272574 0.0006530679 0.0027238764 -0.00023337237 -0.00037750794 -0.0027709994 -0.00029939646 -0.00066583394 -5.6207296e-05 0.0025050105 -0.0022994475 -0.0013438247 -0.0021938917 -0.00095406664 -0.0011932926 0.00076584145 0.0011745646 -0.0015712122 -0.0015024821 0.0003823022 0.0018243308 0.001698881 -0.0009561925 -0.0015157947 -0.0019563984 -7.360928e-05 0.0005799927 0.00039457867 0.0024673166 -0.0008655676 6.5034445e-05 -0.0017274909 -0.00039432573 -0.0026675146 -0.0003200067 0.00046048826 -0.0030105493 0.0028524804 -0.0030249772 -0.0033107584 -0.0028849675 0.002283841 0.0018665883 0.0030949952 0.00073543837 0.00036573914 -0.0008828914 0.0029951048 0.0008940422 0.0013191993 -0.00046903157 0.00023861266 0.0021298104 -0.0003027751 0.0011831811 -0.00030677917 0.0017050197 0.0011754435 0.00093975 -0.001970833 -0.0016196083 0.0011546793 -0.002135602 -0.00016829572 -9.642967e-05 0.0011154136 -0.0029215317 0.0029260514 -0.00048308956 -0.0018655945 0.0014314874 -0.0006237604 -0.0027468347 -0.0013912882 -1.0359531e-06 -0.0030139175 -1.4421199e-05 0.00091660995 -0.0011224162 0.00092445384 0.0008229793 0.0033897518 0.0005279074 0.00044796857 0.0009579278 -0.0007719414 -0.0030555364 0.002683265 -0.0006400945 -0.0033621306 -0.0021852923 -0.0012559171 0.0013228994 0.0018426421 0.002052059 -0.0022576975 0.00027634937 -0.0009390849 -0.0019328207 0.0023101277 0.0015156695 -0.0009508343 -0.002988011 -0.0017875347 -6.625698e-05 0.0026815576 0.002054051 -0.0029604286 -0.003284619 0.0023697072 -0.00072463776 -0.0012181511 0.0017705921 -0.0019267529 0.0016542942 5.160672e-06 -0.0023223336 -0.00013451076 0.0023078583 0.0031870909 0.0008546525 0.001640006 -0.0018149575 -0.00030436405 -0.0015840655 0.00042880018 -0.0006731278 -0.0011641729 -0.0023495646 0.0031861484 0.0007834677 -0.0007245151 -0.0013399891 0.0027554678 -0.0022449081 0.0012410813 0.00042709275 0.0027363056 0.0024294672 -0.0007663317 0.000870633 -0.00065979717 -0.0030418471 -0.0009061919
jewish 0.00044737748 0.0023865025 0.0032377886 0.003114371 -0.0027030231 0.0018676782 -0.0017730065 0.00012192828 0.0002177467 0.0020884965 0.0015269066 0.0014024797 0.003171711 1.7201111e-05 -0.0022108993 -0.0022860665 0.0022913672 -0.0017716901 -0.0010210017 0.0013042344 -0.0008734474 -0.0019557 -0.000638783 0.00042954172 0.0010456485 0.0020689804 -0.001993506 0.0009988557 0.0022784518 0.00052846037 0.0017527674 -0.0018165554 0.0020417864 -0.0026473608 0.0010360513 -0.0030463012 -0.00075377827 -0.0032580984 -0.0004970678 -0.0017768948 -0.0014657148 0.00039452183 0.0008759487 -0.00064999814 -0.002533494 -0.0017665072 0.00034082262 -0.0011750569 -0.0031780635 -3.5713107e-05 0.002118195 0.0021443428 -0.0034319104 0.0010213233 -0.0019792346 -0.0028686884 0.00013422828 -0.00020386543 -0.0022365393 -0.002056225 -0.00093193434 0.0022277995 -0.0025137975 0.0026335535 -0.00018630491 0.00051770965 0.0029815065 0.0016183932 -0.0013109327 0.0012332972 0.0012487788 0.002249962 0.00025238705 -0.0016389637 0.00037415157 -0.0017573482 0.00027843073 0.0017610252 0.001634662 0.0032132533 -0.0026894778 -0.0019799361 0.002280465 0.0008144022 -0.0021601378 0.00032589483 0.0007893421 -0.0008899719 -0.0014639386 0.0017116306 0.0033561827 -0.0025840637 4.2411233e-05 -0.00079976 -0.0018954295 -0.00029792933 -0.0015550004 0.0028232064 -0.0020291675 0.0013754815 -0.000118094315 0.0014571663 0.0007624358 0.003319058 0.00029262528 -0.0018978507 -0.000478037 0.00072577165 -0.0013476918 -0.0025472709 -0.00214226 -0.002377288 0.002067557 0.0014157193 0.0029659057 0.0022209513 -0.0020794005 0.00091808353 0.0030072383 0.00036547743 0.0011739591 0.0020088688 -0.0028528678 0.0029694042 0.0021849822 0.002804618 -0.002660193 0.0019091769 0.0022324424 -0.0004002706 -0.0020225935 0.0019895218 -0.0022905155 -0.0019268716 0.0013171156 0.0028080922 0.0028621894 -0.0015804326 -0.0032199833 0.0029740802 0.002231957 -0.0014912359 -0.0028800203 -0.0014070015 -0.0011779432 -0.0011980182 -2.9187606e-05 -0.00021190924 -0.0009483961 -0.0021417607 0.00313747 -0.0018265408 -0.0025216022 0.002470304 0.00083833595 0.0030187836 -0.0015974196 -0.0024908632 0.00033834047 -0.00016628434 -0.003038659 -0.00034809427 0.000697729 0.0024825765 0.0019841874 0.0011667035 -0.0014232583 -0.00060096424 -0.0012538817 0.0022315045 -0.0022431433 0.00077717047 -0.00036885083 -0.0018093861 -0.0023921044 0.0019762162 -0.002808756 -0.00036072033 0.0009789309 0.0024622714 -0.0025647623 0.0012478286 0.0031795097 -0.0024922143 -0.0011672367 0.0017811662 0.0018798086 0.000728822 0.0026616114 0.00014035495 0.00061552867 -0.0005191589 -0.0029134334 0.0010166493 0.0007408201 -0.0030402835 -0.0002831293 -0.00016585561 5.5126195e-05 0.0029077874 -0.001004478 -0.0018555722 0.0024430926 -0.0025405749 -0.003035019 -0.0006694387 -0.002879156 6.229641e-05 0.0005239223 -0.00092859374 -0.002047938 -0.00022550972 -0.0004539271 0.0011314382 0.0028504243 0.0016693928 0.0027544396 -0.0033647073 0.0028848187 -0.0009476486 0.0030500693 0.00075051136 0.0010131104 -0.003287357 -0.0031521905 0.0029054964 -0.0008850822 0.000996388 0.0019244758 5.0711067e-05 0.0034263334 -0.00037271663 -0.0035046972 -0.0022336922 -0.0004291334 -0.0028152275 0.0024580944 0.0013059147 -0.002829588 0.002513941 0.003012462 0.0018218207 0.0021006607 -0.0031959612 0.00020119693 -0.0032341343 -0.0012110609 0.00014871793 -0.00010343156 0.00069130224 0.0010748649 0.0007121333 0.0018139476 0.0025214595 -0.002216493 0.002606416 0.0022562244 0.0033902586 0.0012237331 -0.0012074341 -0.0010666712 -8.9310815e-05 -0.00048643124 0.0030727684 0.00024943476 0.0012992732 0.0011830855 -0.0029155766 0.0020265928 0.002767684 -0.0005990767 0.0008927619 -0.0021712705 -0.0021094554 0.0030263804 -0.0009039746 0.0023907127 0.000453213 -0.0008746707 0.00094377226 -0.0010951792 -0.0005642953 0.00037936543 0.0017031296 -0.0004556233 0.00020346696 -0.0029602032 0.003235544 -0.0028816382 0.002542171 0.0012061414 -0.0020684171 -0.0015354864 -0.002663498 -0.0015026988 0.0026827995 0.0032599333 0.00058240513 0.00037921485 0.003145882
terrorist -0.0016485072 -0.0003097816 0.0010482288 -0.002087728 -0.0032687776 -0.003274548 0.0031109736 0.0020705718 -0.001555279 -0.0028431008 0.00043223036 0.00084749976 -0.00038884123 0.0003712982 -0.0015744317 0.0014792832 0.00057722314 0.0029756355 -0.0033730743 -0.0017972627 -0.0031245064 -7.610126e-05 -0.0025235233 0.0016897706 -0.001928194 -0.0019432711 0.0015411935 -0.0027496228 0.00039309592 -0.0025318402 0.0032502408 0.0027565425 0.000596909 0.0018702965 0.0014418896 -0.0019521483 0.0033645725 -0.0033790842 0.002710073 0.00093960296 -0.001115244 -0.0011616277 0.0029944992 -0.0019265983 0.0028497826 -0.0018706507 0.002845501 -8.630918e-05 0.0026450201 -0.0009149174 0.0019405028 0.0030347172 0.0007411255 0.00041971714 0.0016952888 0.002808667 0.0028742424 0.0027846424 0.0024260334 0.0026783412 0.0027955614 -0.00011426894 -0.00033186813 0.00060492294 -1.3004688e-05 0.00029357607 -0.0029869222 -0.003170136 -0.0008565163 0.0029669662 -0.0011738912 -0.0022664727 0.0017884264 0.00027427042 0.00060048804 0.0012528099 0.0010518153 0.0019766067 0.00035615105 0.00037866714 0.0028906781 0.0008033378 -0.0014972502 0.0024201653 0.0017732817 0.0009714984 -0.0011349133 0.0010807989 0.002239162 0.0023700178 0.00041514498 -0.0029373725 0.000143633 0.00015235395 0.0014630774 -0.0030575213 0.0033626375 -0.002448153 0.0018568258 -0.0030617348 0.0031974905 0.0024846783 0.00045994826 -0.0011379666 -7.721687e-05 6.981961e-05 -0.0022156052 0.0019544726 0.0006529851 0.001291122 -0.0025946137 0.0027856133 0.00013737405 -6.9401012e-06 -0.002875585 0.0013920226 0.0022030224 0.0024478796 -0.002027163 -0.0027199215 -0.0017416604 -0.0001259938 -0.0027295754 -0.0027880815 -0.0007038011 0.00034515304 -0.0031051906 -0.0013273234 0.00023874684 0.0023196083 0.0006182341 -9.458684e-05 -0.0025023487 -0.002360359 -0.00017161312 0.0025560437 0.0017695512 -0.00057718024 0.00029343588 -0.0033647858 -0.0003867911 -0.0016551522 0.0019159248 -0.0006649983 -0.0014960603 -0.0032233447 -0.0005878016 -0.0024625368 -0.0005067997 -0.0014280444 -0.0007689563 -0.0012622788 -0.0028091376 -0.00047567824 0.0005762219 -0.0012755853 -0.00259995 -0.0013331807 -0.0030321872 -9.777452e-05 0.002043733 -0.0008703641 0.0008353702 0.0018482422 0.0026480537 0.0019377857 0.0032186673 -0.0032224688 -0.0026162616 -0.0020490142 -0.0025797805 -0.0026251636 -0.0025469987 -0.0008969058 0.00046860104 -0.00096458255 -0.0029584358 0.0015583222 0.00034784287 0.0014562013 0.0023061545 0.002660596 -0.000360363 0.0011207659 -0.001716024 0.00069005945 0.0016111532 0.0034116725 -0.001094399 0.0008734534 -0.0019180822 -0.0007223665 0.0025802283 -0.0013597743 -0.00036885863 -0.0031544336 -0.0032034498 0.0028329738 -0.0018746322 0.0016679927 -0.0024504513 -0.0007599201 -0.0027398595 0.0024209197 0.0019974366 0.0017209075 0.0027269658 -0.0002841742 -0.00318253 0.0029605876 -0.0015748303 0.0025625704 0.0018136409 -0.0003861258 -0.002467282 -0.00068719266 0.0020350914 -0.0025590977 0.000324707 -0.0027378032 0.0030263802 -0.0009766623 0.0030445252 -0.0019387976 -0.0032258385 -0.0029516926 -0.0013155298 0.0015903708 -0.00021123403 0.0031658877 0.0011581752 0.0012232888 0.0008431592 0.002784616 -0.0008503271 0.0025346936 -0.0031972455 0.001024039 -0.0001743361 -6.355537e-05 0.0023298464 -0.0010081504 -0.00092621165 -3.2974345e-05 -0.00015561751 -0.0013122325 0.0020978248 -0.002147666 0.0026367027 9.292963e-05 0.00088626705 0.0010667949 -7.7685916e-05 0.00056873326 -0.0012368237 0.0015519025 0.00023045798 -0.0010023166 -0.003111661 -0.0033858933 0.00023154549 -0.0018470295 -0.0003154533 -0.0015349638 -0.0029998897 0.00031979446 0.0020096845 -0.00071218726 -0.002538499 0.0010703005 -0.00016477912 -0.0017905913 -0.0003645517 -0.0002311333 -0.00087933283 -0.0032550152 0.002643947 0.0011941164 -0.0009801146 0.0023930748 0.00031572126 0.0024307985 -0.0005806188 0.0025392962 -1.5308186e-05 -0.002053119 -0.0017666812 0.0032598586 0.00023647897 0.00048055258 0.0027445746 -0.001932437 -0.00041998143 -0.0027454027 -0.0021059054 -0.0026375894 0.0013288481 0.0007995365 0.001985356 0.00082658674
people 0.00072537415 0.0020991184 -0.0007822149 0.0011353593 0.0028053185 -7.5026124e-05 0.0022117894 -0.0019112236 0.0022570891 0.0014628414 0.0017226861 -0.003415049 -0.000107482614 0.0009985181 -0.0021041313 -0.0023902878 0.002216309 -0.002309945 -0.0017427799 0.0027146398 -0.002468141 0.0028999646 0.0003534714 0.0014687369 -0.0007451347 -0.001733669 -0.0031401208 -0.00021467602 -0.0017998755 -0.0011473058 0.0026289376 -0.0027178428 -0.002126129 -0.0018407098 -0.0023080956 -0.00286672 -0.00026797093 0.002989111 0.0027044022 -0.0017370463 -0.0028439192 -0.00074176636 -0.0031223462 -0.0018233547 -0.001834173 0.0012019945 -0.002478431 0.0005664214 0.0006975514 0.0019223663 -0.00072655664 -0.003147223 0.0016169759 -0.0020138128 0.0016372093 0.00080383825 0.0029960985 0.00042223863 -0.0005346247 0.0021859845 -0.0024485297 -0.0028762417 0.0013081089 -0.0007774727 -0.0013936071 -0.0005404692 -0.0034486444 0.000102192804 -0.0004368788 -0.0009773276 0.00088218704 0.0016529753 0.002342849 -0.002771013 -0.0017232855 -0.0028684738 -0.0031550888 -0.0011793778 -0.00047417788 -0.00262068 -0.0019414659 -0.0008350852 0.0021751132 0.0008035016 0.002787336 -0.0027366232 -0.0016148618 -0.00032326416 0.0030948985 0.00040721297 0.00062190625 0.00031131908 0.001088609 -0.0030748078 0.0012407133 0.0019300617 0.0019460972 0.0013293203 -0.002786565 -0.0012415833 0.0027439983 -0.00012883401 -0.0031303319 0.0016035632 -0.0019337273 0.0021406421 0.0017133959 -0.0016402855 0.00065170915 0.0018711215 -0.0014545419 -0.0005931125 0.0030076194 0.003122013 -0.0029413055 0.002568789 0.0032398289 -0.00093811704 0.0010062343 -0.001061106 0.0029855482 -1.8607841e-05 0.001961758 0.0030143675 0.0012733712 -0.00235895 -0.00058371975 0.00018719056 0.00068498065 0.0010002834 0.003247887 0.0016238225 0.0032902586 -0.0030335442 -0.0018135475 0.00075351575 0.001163081 -0.00040922844 -0.0024623973 -0.0012869557 -0.0027446426 0.0029954386 0.0011870288 -0.002495048 0.0011655879 0.0012949454 -0.0021135495 -0.002047854 0.0004134847 0.0028884576 -0.0032160399 -0.00019795269 -0.0023737403 -0.0003691141 0.0010345726 -0.0015587177 -0.0010215986 4.0125386e-05 -0.002128218 0.0025939122 0.0015573148 -0.0026961297 -0.0009941921 0.001284669 -0.0030179115 -0.0022964124 -0.0027511595 -0.0018133578 0.0030099875 0.002594326 0.000880726 -0.0028112964 0.0019843294 0.0016381023 3.7372985e-05 -0.002935007 -0.0006147583 -4.3265274e-05 -0.0025212122 0.0007323592 5.7754238e-05 -0.002220934 -0.0028209998 0.0019074869 -0.0027821318 -0.0018337247 0.0019543495 -5.0570114e-05 -0.0010065298 -0.0018451359 -0.00039723798 0.0017783913 -0.0021470103 -0.0016981269 -0.0015768704 -0.0016798846 -0.0027350774 -0.003399821 0.0025818127 0.0026944093 -0.0015683642 -0.002999228 -0.0006556215 -0.001360429 0.002976073 0.0009192908 -0.0020583514 -0.0011899648 -0.0033830302 0.0005695557 -0.0012778587 -0.0009846607 0.0016502171 0.0024990814 0.0015523446 -0.0024985978 0.0021862427 -0.0035348472 -0.0025153803 -0.0027940192 -0.00061522727 0.000117096984 -0.0013642318 0.00059056625 0.003079218 0.0021582 -0.0003150841 0.0030316603 0.00033281726 -0.0005403057 -0.0020806808 0.002125967 -0.003279252 -0.00053569785 0.002493689 -0.00082665496 0.0005389341 -0.0024039564 0.0017023816 0.0022190001 -0.0031050504 -0.0011365198 0.0024470882 0.0009761131 3.122248e-06 -4.2900112e-05 -0.0032759076 0.0033733512 -0.00066926726 -0.0014666399 0.0009313338 0.0003217698 -0.0019438433 0.0019018106 -0.0010699016 -0.0020698505 0.0026589464 0.0022730473 0.0026846044 0.00028334517 0.00030168385 -0.0025570975 0.0015867461 0.00295015 -0.00031942053 -0.00060229027 -0.0012254711 -0.00014945022 -0.002708029 0.001912368 0.00044315733 0.0031742298 -0.0021701502 -0.0017569466 -0.0018337398 -0.0023211627 0.0010067916 0.0015785318 0.00027638453 0.0011335339 -0.00290463 -0.00033274668 -0.0026588875 0.0010291507 -0.0009076938 0.002917437 -0.0013855859 0.0023265688 0.0013979888 0.00061824435 -9.755328e-05 0.0029546188 0.0009750878 0.0027075903 0.001290226 0.0020541016 0.0017406234 -0.0026516337 -0.0017894178 0.0003659284
trump 5.7205078e-05 0.00090622983 0.0002623955 0.0026296182 -0.0015207673 -0.00016199579 0.002494478 0.0011713104 0.001496398 0.0013159759 -0.00039669222 -0.0029077802 0.0010622595 -0.0030449028 -0.0010743394 -0.0033259944 -2.9588828e-05 -0.0026514605 0.0023973198 -0.0016670164 0.0031903815 -0.0029547897 -0.0012807051 0.0006462971 -0.0007053947 0.00056610437 -0.0014516514 -0.0003362201 -0.0020469907 -0.0034436618 0.002045019 -8.6977016e-05 0.0021546239 -0.002614109 0.0010964561 -0.0032316232 0.0026582158 0.0017723547 -0.0020050216 0.0027674485 -0.0020199637 -0.0028329873 0.00046200305 0.00090525957 -0.0025009585 -0.0027870124 0.0031468105 0.00071322714 0.00024849418 0.0010412823 -0.001232011 0.00073167635 0.00047584285 0.0032386323 -0.0018709984 0.00095268234 0.002151656 -0.0023114954 -0.0029140573 0.0029351555 0.0021720543 -0.0014574764 0.001916638 0.00034525813 -0.0017098085 -0.00030738526 -0.0018027968 0.0020769387 0.0005396742 -0.0027979773 3.771092e-06 -0.0007685055 0.0024612402 -0.0004970633 0.0025028633 0.0006833542 -0.0014813248 0.0028314465 0.00088705734 -0.0011802027 -0.0020394144 -0.001192174 -0.0015988771 0.0015231685 -0.003055608 -0.0018950899 0.0010033842 1.3636879e-05 0.002175001 -0.0011711718 0.00015437164 0.0006782555 0.001912635 0.00059971935 0.003486614 0.0013831112 -0.0021714265 -0.0006855985 -0.0029054775 -0.0016476847 -0.0007854532 -0.0031486126 0.0031420465 0.0006999045 -0.00028537173 -0.0019128202 -0.0029327183 -0.003244594 0.0027412875 -0.0007641078 0.0012509865 -0.0015949805 0.0032315303 0.0013274837 0.0005954414 -0.0013106205 0.00033359692 -0.0008607815 0.0026344452 0.0013429037 0.0004878272 0.0012499653 0.0012935506 -0.0023278107 0.0028816347 0.0005486075 -0.0018252423 0.002747311 -0.00040915603 0.002770556 -0.00045737386 0.0025441719 0.0009065887 -0.0016370364 -0.0010932093 0.0031744041 0.00047749383 -0.002087265 -4.2392687e-05 -0.00090256304 0.0006795194 -0.0027494333 0.0023963985 0.0005997998 0.0027356595 0.0014012327 -0.0017516881 0.0011492398 -0.0001347577 -0.0034266845 0.00276923 0.0029844712 0.0031013684 -0.0013879376 -0.002845532 0.0017386571 -0.0026575841 0.0026454863 0.0009260777 0.0020752482 0.0021311494 0.00033099952 -0.0010407246 0.00053325854 0.0029944426 -0.002288372 -0.00044860822 -0.0007631576 0.0016718883 0.002447887 -0.0014895652 0.0012440323 -0.0014503128 0.0012135245 0.002756286 0.0012120191 -0.0015513223 -0.0011234242 0.002659174 0.0030772176 0.0018286733 -0.00094243634 -0.0007018681 -0.0022462686 -0.0014318277 0.001150159 -0.002055073 -0.0020480992 0.0026874712 0.0030519776 0.002730725 0.0005079319 -0.0031425557 -0.0026395025 0.0006208717 -0.0033051204 -0.002527024 0.0005067129 -0.000927593 -0.0030601583 0.0019809294 -0.002869365 -0.0025019327 -0.00069990626 0.00049917185 -0.00040048364 -0.0018285537 0.0021079034 0.002818221 -0.0025602886 0.0033642529 0.0023606091 -0.0025644626 -0.00066306046 0.0015347322 0.002071196 -0.0012707032 -0.0027079068 0.0013243791 -0.003126739 -0.0017956767 -0.00043829836 0.0016606906 -0.0019422709 0.0016294018 -0.00023330969 0.00097296503 0.0021661161 0.00026960773 0.0027385387 7.573969e-05 -0.0028201868 0.0027977144 -0.0014995325 0.0014828662 -0.001189331 -0.0024308627 -0.0020849358 0.0016399143 -0.00052443246 0.00053614465 -0.0030809445 -0.0019524882 -0.002018118 0.0028317245 -0.003047064 0.0016932013 -0.00019795146 5.467931e-05 0.003115715 -0.0011836342 -0.0023003106 0.00031195363 0.002573254 0.0027690951 -0.0012622885 0.0011535309 0.0017576956 -0.002078615 0.0022141996 -0.0019692355 0.0007872782 0.0015786523 0.001291256 -0.0016917584 0.0008846612 0.0025191095 0.0028924528 -0.003404838 0.0018944821 0.0015822437 -0.00043886562 0.0030601972 -0.0014294614 -0.00030343386 -0.0021682442 -0.0011167026 4.68058e-05 -0.0013096968 -0.0018666855 0.0024216208 -0.0017271307 -0.0021984903 0.002604261 0.003184407 0.001277261 -0.00027985088 0.00030827773 -0.00028887362 0.002481108 -0.0022124103 0.00042734196 0.001653222 -0.0007638013 0.00051906914 0.0015349798 0.0032850467 0.0006122356 0.0033441233 -0.0019990136
say 0.0016112713 -0.0010198605 -0.0015250718 0.0004916441 -0.0014080922 -0.0021229964 0.0011925619 0.0031958392 -0.002100409 -0.003113606 -0.0011025729 0.002365325 -0.00316927 0.003096889 -0.00034648058 0.000582189 -0.0004957809 -0.0019279226 0.00096066354 0.0020326036 -0.002481632 -0.0003264287 0.0006841845 0.001409384 0.002681443 -0.0010979973 0.0022065588 -0.0018798998 -0.0008813249 0.002891689 0.0017469447 -0.003047608 -0.0005569638 -0.0030562112 -0.0007182047 0.00195223 -0.002360831 0.0016551625 0.002046042 -0.0012347536 -0.003359259 -0.00082983164 -0.00089388894 0.001100958 0.0031476498 0.00089835824 -0.00062397425 0.0011472956 -0.0023137438 -0.00022878169 -0.00057399744 0.003329189 -0.0020564129 -0.0023947074 0.0008231146 0.0010466515 -0.0023413051 -0.002051467 -0.00029422567 -0.0010701763 -0.0030758535 -0.0014785543 -0.00095674134 0.0022542595 0.00029240537 0.0006340436 -6.242229e-05 -0.001116942 0.000907044 0.00022382192 0.0020545423 -0.00018214887 -0.002735395 0.00015108057 0.0032394074 -0.0017040502 -0.0019395084 -0.00075476785 0.0028038411 -0.00014340015 0.0029579275 -0.0029404233 0.0031261623 -0.0029228707 0.0031044155 0.0006696997 0.0007459202 -0.0020065652 0.0029895285 0.0020375864 -0.0016757047 -0.0033185247 0.0024280373 -0.0018073273 -0.0029146608 0.0009982811 -0.0014304377 -0.0026445207 0.003150594 -0.00041789832 -0.0005346673 -0.0012708583 -0.0014466431 -0.0015515223 -0.0017742539 -0.0018631835 -0.0027774873 0.00322177 0.0019052007 -0.0011729562 0.0005373918 -0.002665831 0.0024583794 0.0028762252 0.00048353273 -0.0022467754 -0.0010472611 0.0015870049 -0.00079905504 0.0008986635 0.0032949583 0.0015258874 -0.0016625085 0.0017698341 -0.0010671032 -0.00217626 0.00246571 -0.0032541933 -0.00033631385 -0.0004229564 -0.0027392765 -0.00016948416 0.0018201164 -0.0019400455 -0.0022126944 0.0021697853 -0.0012217272 -0.002725026 -7.041566e-05 -0.00026783312 0.0026323216 1.8841627e-05 0.0025795228 -0.003109775 0.0014910485 0.0019939062 8.6462176e-05 -0.0010689434 0.000424649 -0.0003905871 -0.0026973155 -0.0024839423 0.00028136748 -0.00076414924 0.0031879328 -0.00018658659 0.001953747 0.00047452253 0.0026727957 -0.0028712214 0.00091227883 -0.0002912228 0.0003912906 0.0002084346 -0.002489977 0.0031166368 -0.00087452127 0.0006683842 -0.0020622702 0.0015132026 0.0032369862 -0.00035226048 0.002241489 9.563022e-05 0.0026463617 0.0032308525 -0.00016566075 -0.0007041966 -0.0031187562 0.0031640753 -0.0009681178 0.0008865536 -0.00065574335 0.0026153543 0.0027841697 0.0005737792 0.0010580454 0.0022943045 0.00070498564 0.002027808 4.4932996e-05 -0.0007370591 0.0015632209 -0.0012202562 -0.00079886225 0.0028340125 -0.0031202242 -0.001338971 -0.00091416 0.0018822309 0.0024754214 -0.0020283049 0.0018822197 -0.00022139635 -0.003073873 -0.000862381 -0.0006231651 -0.001573688 -0.00035937486 -0.0018422359 0.002091314 0.0030166202 -0.000596033 0.0011053112 -0.00011152098 -0.0005374936 -0.002409044 0.000120975485 0.0010672271 0.0021873706 0.002334554 0.0011457677 0.001406427 -0.0025277399 -0.00043605725 -0.0020202817 0.0023642723 0.0026526435 -0.0016134629 0.0005228815 0.0018395374 0.00057312584 -1.9248573e-06 -0.0021381765 0.0032134322 -0.0023135338 -0.0020378968 -0.0018147796 -0.0020506273 -0.0014463922 -0.003114886 0.00030670792 -0.0014634171 -0.00084756187 0.001954131 0.0010116867 0.00062173 -0.00036196678 0.0032841673 0.00028183716 0.0016913074 0.0029956663 -0.0032021136 -0.0030577157 0.0030528142 0.00086587586 -0.00039263305 0.0016987507 -0.0017219235 -0.002221561 -0.002562826 0.0024973496 -0.0007421498 -0.0026943437 -0.0020822182 0.0020592913 -0.0007667893 -0.002023296 -0.000748397 -0.0004648887 -0.001138482 -0.0006027871 0.0013571369 0.00043712027 -0.0008848691 0.0010192011 0.0018800485 -0.0031387622 -0.0027458693 0.0020474647 -0.0027582778 0.000213461 -0.0030889018 0.002851543 -0.0014410528 -0.0022563124 -0.0007282394 -0.00031838118 0.0025560386 0.003221383 -0.00023645625 0.0011736603 0.0018054394 2.1457548e-05 -0.0017107133 0.00010072987 0.00077019166 0.002641772 -0.0010485661 -0.0033071628
united 0.0018260418 0.0034411862 -0.0024362246 -0.00011802479 -0.001726434 0.001911823 0.0033522062 0.00026777916 0.001766818 0.0021118226 0.0014788705 -0.0028408738 0.001041111 -0.0005913604 -0.00085911487 0.0016453018 -0.0003080808 0.0033220486 -0.0002723698 3.2115622e-05 -0.0008862694 -0.0027853206 -0.0031275195 0.0016470747 -0.0019547837 0.0010338844 0.00073099404 -0.0023774635 -0.0011933368 -0.00206278 -0.0028883868 -0.0001559225 0.003280351 -0.0023292336 -0.0015840881 0.0028418659 0.0032238406 0.003113303 -0.0032556432 0.0017242854 -0.002334217 0.0023396986 0.0019997838 -0.00125385 0.0024726067 -0.0024688502 0.0015821528 0.0016399929 0.0019634978 0.0021327154 -0.00095057103 0.00140256 -0.0021837987 -0.002197859 0.0009292128 -0.003004945 -7.132008e-05 0.0002873235 0.0027510617 -0.0022992133 -0.00087581016 -0.0014917367 -0.0017185167 -9.33845e-05 0.0015091167 -0.0015732888 -0.00067989033 0.002885589 -0.0005470742 -0.0012130163 0.0025386824 0.0004955215 9.2747985e-05 0.0030519331 0.0026400376 0.001165832 0.00094853726 -0.00069116027 0.0026163112 0.0017935099 -0.0019689808 -0.0021735078 -8.458051e-05 -0.0023446714 0.0011618541 -0.0030607064 -0.0006268491 0.0010964199 0.0011671813 0.0011011044 -0.0029081197 0.0010078049 0.0018418593 0.001211459 0.002778131 0.00068019563 0.0022679707 0.002766089 -0.00038096236 -0.00017515666 0.0007377573 -0.0024301875 0.0018967156 -0.0016931327 -0.0010121092 -0.00069256104 0.002662007 0.0007732926 -0.00052103697 -0.0009189443 -0.00093256973 -0.0005180538 -0.0017540231 -0.0012823353 0.00025357757 0.0015398646 0.00053861446 0.0023078013 0.00035032412 -0.0011979997 -0.0023257434 0.0020828685 0.0023756085 -0.002096805 0.0015037005 0.0031412025 -0.0020335228 -0.0010971206 -0.0030101964 0.0011232875 -0.0011073898 0.0008651021 0.0031469006 -0.0029438986 -0.0029979553 0.00064970297 -0.002742338 -0.003140572 -0.003236358 -0.00030241083 -0.0002550289 0.00010789467 -0.00048341873 0.003174164 0.003039692 -0.0021964025 0.0026590219 -0.003111254 -0.00036347314 0.0007360348 -2.3118018e-05 -0.0014705884 5.4813107e-05 0.00022999743 -0.0031376972 -0.0015193672 -0.0026495783 0.0011063941 -0.0002982275 -0.002301553 0.0019749082 0.00026251253 0.0006146875 0.0020598324 -0.0016310924 0.0027044802 -0.0025384764 -0.001149046 -0.0024268362 0.00055414793 -0.0025438133 0.0030571988 0.0019064032 -0.0023172735 0.002065788 0.0022168406 -0.0025096978 0.0014578039 -0.0025289634 0.0030032268 0.0014668216 4.316431e-05 -0.003087504 -0.00042270843 -8.164591e-05 0.00036797582 0.00298968 -0.00082357595 -0.0029362426 -0.0030509583 -0.00033979505 0.00045948205 -0.00016318061 -0.0008411295 0.002912413 -4.091427e-05 0.0021191104 0.0011597935 -0.002353888 -0.00070706883 -0.002745922 -0.0021719176 -0.0011265802 0.002089019 -0.00033924065 0.002930215 -0.0008525549 -0.0018457175 0.0012129175 0.0006477151 -3.0181686e-06 -0.0009304583 -0.002085841 0.0013241769 -0.0024347974 -0.003212465 -0.0031056274 0.0024731217 0.0011142663 0.0022810833 0.00342504 -0.0024451949 0.0011957301 0.0008523113 0.002087717 -0.0012068319 0.0031889013 -0.0019235195 0.002167404 0.0024447981 1.4833914e-05 0.0016648192 0.0020029407 0.00061983697 0.0023807616 0.0008838765 -0.00050738757 0.0025493305 0.001626203 -0.0013124846 0.00057943305 -0.00013015703 0.0014663329 -0.0018091963 -0.0013570766 -0.00044530223 0.0012813776 -0.0021285508 0.0026074143 -0.0008729013 0.0019223398 0.00095726777 0.0023078367 -0.001494861 -0.0012820226 0.0009473864 -0.0007235449 0.0020771243 -0.002246522 0.0008002191 -7.794253e-05 -0.00013229628 0.00089566695 -0.0008916024 -0.0015297403 -0.002838898 0.0008836927 0.0017982292 -0.0021398175 0.0030633658 0.001282188 -0.0016360172 -0.00043490052 0.0012891188 -0.002118175 0.00076845783 0.0019377361 0.0020307295 0.0016222058 0.001167293 -0.0007208593 -0.0020113895 0.0026433715 -0.002373707 -0.0005453528 -0.0011190313 0.0019361104 -0.0020476058 0.0011754148 0.00083874114 -0.0014667653 -0.0025261045 -0.0024762058 0.0011368557 -0.0030139622 0.002161734 -0.0009571605 -0.003186174 -0.0015886431 0.0025300994
today -0.0005502953 0.0022784132 -0.0031573824 -0.0029857664 -0.0017562662 0.00012179072 -0.00229742 -0.0028445697 -0.002929775 -0.00022326445 0.0025010698 -0.0029170178 -0.0017624351 0.00044809884 0.0009770904 -0.0029715167 0.0027421634 -0.0027399347 0.0015428003 0.0031170747 0.0017900657 0.0020831253 0.0028620134 0.0011569022 -0.0021556956 0.0019485415 -0.0029435814 -0.0019271446 0.001850186 -0.0027632318 -0.0020147073 -0.0013465566 0.0011299348 0.0016768215 0.0005976619 0.0017534795 -0.0007816365 0.0013122297 -0.0023268948 -0.00054144877 -0.0026872854 6.815924e-05 0.001543686 0.0014898727 -0.0014092004 0.00074159313 0.0026441808 -0.00174873 -0.0012842164 -4.6660072e-05 -0.0016471009 0.0029972424 0.0023850552 0.0030397864 0.0031434959 -0.002686208 -0.00011885429 -0.0025877915 -0.0015211711 -0.0029192462 0.001065213 -3.8469625e-05 -0.0022862086 0.0027283954 0.00030407796 0.00019640799 -0.0013502539 -0.00110518 -0.00096215465 0.0025268835 0.0008593956 -0.0016244384 0.0017600291 0.00023131436 -0.0009409696 0.0025958866 -0.0014619625 0.002537782 -0.0014585727 -0.0023669724 -0.0016334723 -0.0014148616 -0.00014359402 -0.0003504481 0.001733886 0.001838371 -0.00064910157 0.0012238076 -0.00055619224 0.0002882816 -0.00034080262 -0.00091480324 -0.0015138463 -0.0013787282 0.00019863922 0.0006534015 -0.0030279076 0.0018793257 -0.00063246075 -0.00090939185 -0.0016213233 -0.0013827507 -0.0015806843 -0.0032788084 -0.000198631 -0.0026729933 -0.0016811577 -0.002409033 0.003137262 -0.00042221285 -0.0027891959 0.0017651492 -0.00273696 -0.0005481647 0.0010722714 -0.0023201075 -0.002952017 -0.0022236705 0.0026074783 0.002923212 0.0014321672 0.00086289993 0.0014342411 -0.0014237426 0.0031733578 0.0022826355 0.0014189238 0.002859902 -0.0027790053 0.00034990718 0.0030157878 -0.00017371956 -0.0022485584 -0.0008855395 -0.000837171 -0.0007830039 -0.0006733226 0.002346893 -0.00021373926 0.0012489328 -0.00114086 0.002629836 -0.0021875114 -0.002999281 -0.0013117968 -0.0025557466 -0.0018430406 9.163966e-05 0.00084405683 0.0005012947 0.0016569588 -0.0006627353 0.0006663358 5.2425865e-05 0.0026362198 0.002786098 -0.0007214346 0.00024373786 -0.001998492 -0.0014431751 -0.0022499203 0.00013522594 -0.0018923271 -0.0011364608 0.00029358504 0.0009615446 -0.0029788488 0.0005745411 0.001761329 0.0015903226 -0.0010406427 0.0031960476 0.003215476 7.5658434e-05 0.00028563448 -0.0030772104 -0.0016176535 -0.00011320516 0.0013910226 -3.470922e-05 -0.0030157191 0.0020672113 -0.0025414268 0.0027330446 0.0018623145 -0.0022056731 0.0010404525 0.0026904503 -0.0020512189 -0.0022828225 0.0030539099 0.0006106147 0.003092784 -0.0033487992 -0.00043264116 0.0022156178 -0.00052577874 -0.0007270266 -0.0023066609 -0.0018846845 -0.0023125275 0.003068272 -0.0005742086 -0.0028514678 0.0026478174 -0.0010341202 -0.0005058337 -0.00027727918 0.0008715197 -0.0016466054 -3.0394152e-05 -0.001027877 0.0028863274 0.0022639344 0.00044535848 -0.0022415842 0.0010093541 0.00010643446 -0.00221636 -0.002003995 -0.0009256061 0.0007790732 -0.0028399155 -0.0017130994 0.0027066616 -0.0013210605 0.0027116523 0.00017441255 -0.002015214 -0.0015550829 5.5238044e-05 0.0014962563 -0.0022460723 -0.0017495533 -0.0023331076 0.002309727 -0.0008220555 0.001402087 -0.00049205124 -0.0026845215 -0.00039815868 4.677717e-05 0.001043003 -0.0028969233 -0.002276809 -0.0022919092 0.0010247167 -0.00118279 0.000333118 0.0015274694 0.0014963472 0.00079193176 -0.0009272637 0.00019942228 -0.0019942797 -0.0021602933 0.0031064865 -0.0012573216 -0.003342389 0.0011933098 0.0029587306 1.5703483e-05 0.0007898825 -0.0013249537 -0.0014851666 -0.0028983646 -0.0025948412 -0.0029844805 -0.0021552495 0.0028448293 0.0031034017 -0.00048162142 -5.3105196e-06 0.0025707004 0.0006297719 -0.0016516162 0.000983853 0.00056793774 -0.0013999298 -0.0017003685 0.0034091128 0.0025674046 -0.0029206793 -0.001790414 0.00045995586 0.0002729692 -0.0030078748 0.0031599714 -0.0017642088 0.0016624078 0.0030014853 0.0005694838 0.0015865653 -0.0009257705 -0.0030948096 0.0004353567 -0.00032368614 -0.0034080704 0.0024573947 -0.0025292223
syria 0.0017393186 -0.0013515118 -0.0031014865 -0.003012131 0.0020441995 -0.001906725 0.0018329293 -0.00024952035 0.0032874956 0.0022983027 0.0032992626 0.0026953446 -0.0025770532 -0.0032598064 -0.0019379919 -0.00039375576 0.001756828 0.0012567982 -0.0006850273 0.0016655669 -0.0012309286 -0.002239535 0.0016782038 -0.003266884 0.00052059 -0.0016136118 0.002370186 -0.0012693728 0.0008308247 -0.0021901864 0.0031600266 -0.002010839 0.0011763327 0.0010041631 0.0028783295 -0.001816848 -0.0013738077 -0.0022101623 0.0020810503 -0.0014991513 0.0015227675 -0.00028816392 0.0024201307 -0.00213883 9.678155e-05 0.00010724863 -0.0028461148 0.0030082953 -0.0007316313 0.0022847783 -2.025424e-05 0.0017425553 0.0006375509 0.002931251 -0.0027563851 0.002950136 0.0029180357 0.00030689672 0.0015672955 0.0013067835 0.0012999743 -0.0010688303 0.00097454997 0.00032094086 0.0015873522 0.0028876138 -0.0027208612 4.147092e-05 -0.0029705483 -0.0005295627 -0.00296617 0.001152014 -0.00037191267 -0.0003459803 0.0021261757 -0.0026749235 0.00023445625 -0.00077532337 -0.0012862945 -0.0023361887 -0.002791798 0.0026601509 -0.002417225 0.0018458234 -0.001245563 -0.00039889434 0.0008577589 -0.002894765 -0.001775149 -0.0025516679 -0.0030598657 -0.0016747146 -0.0010097785 0.00017897446 -0.00011107218 -0.0025489365 -0.0011329209 -0.0010544956 -0.0021879594 -0.00205392 -0.00090639084 -0.002603593 -0.0027156507 -0.0025400028 0.0012423494 -0.0026193873 -0.0013036976 0.0022758967 0.0022931222 -0.0020895172 0.0020726295 -0.0026549075 -3.276001e-07 0.0022850116 -0.0007767077 0.0031048078 -0.00013945947 0.0015611552 0.0024279817 -0.0029430792 -0.0019295017 -0.0023829166 -0.00032921188 -0.002424206 -3.1176216e-05 -0.002683964 0.00019777221 -0.00023365745 0.0021628554 -0.0029465263 -0.0010123075 0.002092087 0.0030925192 -0.0006973814 0.0003674651 -0.0020063429 0.00020089523 -0.0027734006 -0.0026570829 0.00031880516 5.4195465e-05 0.0017826785 -0.0032707113 0.00065565354 0.0005868323 -0.0018133692 -0.00014760552 0.0019622757 -0.0021635182 3.0703864e-05 0.0012960004 0.00039922938 0.00084617746 0.0026696764 0.002254935 0.0012401101 0.0025904237 -0.0027062604 0.0025230518 0.001439551 -0.0019040814 -0.0012702644 0.0019155757 0.0021315056 -0.0034856612 0.0004957033 -5.9518334e-05 0.00026951003 0.0024028297 -0.002163508 0.0031396751 -0.00315736 0.0021323748 0.0032496483 -0.0012798124 -0.0031296054 0.0020805146 -0.0030679351 -0.00270661 -0.0003372585 -0.0023132602 0.00303753 0.00258746 0.0001740156 0.0026729922 0.0033417502 0.001787842 0.0015697215 0.0017795243 0.002053487 0.0015682773 0.0021449758 -0.0026304792 0.0029105323 0.002815224 0.0030781205 -0.003055311 -0.0012590962 -5.5133405e-05 0.0014115302 -0.0028604073 0.0001229889 0.0019470319 0.003125978 -0.0009839049 0.00057959254 0.002058753 -0.0007254646 0.0006093732 -0.0031612178 0.00028695195 0.0014844341 0.0014604152 -0.003303209 -0.0016456103 0.0008015402 0.000495392 -0.0018274146 0.0017937267 0.0010970003 -0.0025013392 0.0032634316 -0.002693293 -0.0010352052 0.0032660645 0.0003192404 -0.0017971646 0.00036885304 -0.0014957592 -0.0021614777 -0.002478302 0.0015554432 -0.0031973803 0.0014439244 -0.0018988631 0.0018702659 -0.0014774797 -0.0018282793 0.0021630647 -0.0030932387 0.0004909937 -0.000763216 -0.0023860892 -0.0025373101 0.00222372 -0.0016051284 0.0015476559 -0.0031722535 0.0006271235 -0.00053480215 -0.0019624976 -0.00091625145 -0.0028583196 -0.0011544218 -0.0010582084 -0.00077417854 -0.0015432171 -0.002980088 0.0015798563 -0.00049315544 0.0021858863 0.0010890656 0.0028854862 -0.0012911414 -0.0030560882 0.00041724194 -0.0029701714 0.0020404346 0.0026465263 0.00019671065 0.0025270798 0.0029075104 0.0014072128 0.001779421 0.0031958763 0.00043786794 -0.0026523825 -0.0028052807 -0.00073908985 -0.0002463768 0.0031203718 -0.0031005119 -0.0009292655 0.0030751638 -0.0004595806 -0.003084232 0.0004980654 -0.0018873828 -0.0018092323 -0.002000355 -6.359595e-05 0.0025973904 0.0015392685 0.0026636142 0.0030729116 0.0017216048 -0.0019908953 0.002279058 -0.0030832468 -0.0016524466
you 0.0026742157 0.0027991328 -0.0018884112 -0.002619216 0.0026668247 -0.0014784088 -0.001219282 0.0027097627 0.0018544437 0.001200389 -0.00038743165 0.002800785 0.0028578886 0.002250558 0.0028803186 -0.0020570778 0.00040409985 -0.0005741128 0.0020625028 0.003227262 0.0016102141 0.0013826985 0.0023119112 0.0019739745 0.0002608315 -0.0027437764 -0.0009002794 0.003002602 -0.0018101969 0.00023112836 0.0015787826 -0.002474379 0.0027278634 0.00038630466 0.0006940579 0.0028365012 0.00056491705 0.0001505019 -0.0031412079 0.003316831 -0.0034153 0.0028541815 0.0016616737 -0.0001240995 -0.0024922495 0.00330058 -0.00039457472 0.0018951087 -0.0010441887 -0.0014730354 -1.1271031e-05 -0.0025724557 -0.0023212065 -0.0032002726 0.0018120431 0.00027748107 -0.0002612016 0.0016370248 -0.00057437737 -0.0024381573 0.00086711877 -0.0020793865 0.00015895063 0.003213601 -0.00035231689 0.0021347674 0.0013677616 -0.0011619196 -0.0018329696 0.0029301739 0.0007555465 -7.7767014e-05 0.00047123255 -0.0017488259 0.0011382621 -0.0010064716 0.0012522193 -0.0014610821 -0.00032060334 0.0014184306 -0.0025397819 -0.00097264734 -0.0028293645 0.0007755157 0.0006916705 0.0008429813 0.00026993186 -2.4818524e-05 0.0008524862 -0.00028898517 0.0020778584 -0.0011127129 -0.0016062943 -0.001737366 -0.0030707428 -0.0026106564 0.0008585466 0.0011826187 -0.002009029 -0.0031372248 -0.0020851148 0.0015965047 -0.0030149922 0.001683337 0.0021928472 0.0019582214 -0.0026210516 0.000982776 -0.001989758 0.0030702492 -0.0016480526 -0.0008547507 0.0017087271 -0.000181971 0.001871893 -0.001386562 0.0016058089 -0.0032608996 0.0021627338 -0.000518521 -0.0017555257 5.0387032e-05 -0.000365366 -0.00029540286 -0.0006880811 -0.0030952308 -0.0024948714 -0.0023983426 -0.0028587475 -0.0014714686 0.0031231837 -0.000443358 -0.002556832 -0.0020964015 0.0012909122 -0.0008337615 -0.0005757684 -0.0015173389 0.0018614504 -0.0027939787 -0.002392084 0.0023587034 -0.0023621074 0.00084841845 0.00022944267 0.0031623568 0.0012208129 0.0005915718 0.00097191543 0.0006674318 0.0007345881 -0.0010790417 0.001274369 0.0019669372 0.002980495 -0.00015564627 -0.00048510262 0.0020028872 -0.0028262509 -7.1947456e-05 -0.002134916 0.0017484428 -0.0032165053 0.0012969549 0.002799028 -0.0006101974 -0.0028805386 -0.002720543 0.0011235785 -0.0015733561 0.0020867363 -0.0003680835 0.0026521543 -9.548075e-05 -0.0020505374 -0.001892099 0.00022507695 -0.001680258 0.0022245196 -0.0012516477 -0.0019750458 0.00043974034 -0.0016820264 -0.0028708226 -0.0017543625 -0.0006106165 0.00022232525 0.0013238707 0.0022708313 0.0021492154 0.0019513023 0.00012492301 -0.0020931214 0.0029456243 -0.00015991686 0.0014940308 -0.00051540276 0.0017905863 0.0018293151 -0.0024208701 -0.0010524294 0.00011453576 0.00063265563 -0.0031963629 0.0015610486 0.0010865154 -0.00014133638 -0.0012352342 -0.0026178244 0.0024586492 -0.0027959016 -0.0025312332 0.0014351953 -0.002858787 -0.001000051 -0.0009257495 -0.00069290225 -0.0025564204 0.0012340207 0.00024849895 0.0013366701 -0.00047190045 0.0021890495 -0.0032213356 0.0019651833 -0.00178015 0.00062770373 -0.0022769126 -0.000980758 -0.0020263318 -0.0009888074 0.0032124105 0.0006944375 0.0006192362 -0.0020847006 0.0019409626 -0.002724695 -0.0007066181 -0.0021145286 -0.0023705799 0.0007757098 -0.001187867 0.0006417452 0.0013121443 -0.002076205 -0.0007247122 -0.0009000458 -0.0032221924 -0.0032831267 0.00049142144 0.0014706143 7.313038e-05 -0.0015984396 0.0011824649 0.00034010134 -0.003168399 0.0025841256 0.0026703724 -0.002805773 -0.0003344064 0.0021660016 -0.00084621727 -7.158303e-05 -0.0015425397 0.0019581227 0.0023203464 0.00071941054 -0.0015279257 -0.00078305113 -0.0013067987 -0.0032831314 0.002682169 -0.00021231938 -0.00023781852 0.0025755025 -0.002927684 0.0022275124 -0.0025891194 -0.0019404513 0.0016450487 -0.00097306486 -0.0011526498 -0.0021707937 -0.001258068 -0.00090578536 -0.0014124113 0.0029207717 0.0032096026 -9.7904944e-05 2.9193454e-05 -0.0019745312 0.0028450626 -0.0014680083 0.001923815 0.0031981387 0.0021585524 -0.0002835309 0.0017500779 0.0024483304 -0.0013208134
also 0.00022713328 0.0023211278 0.0018953694 8.0977425e-06 0.0007761884 -0.0023859816 -0.0029862912 -0.001292322 -0.001750288 9.582223e-05 -0.0013073504 -0.00024514465 0.0025953145 0.0031648106 0.0024930618 0.0006310179 -0.00080896803 0.0008125822 -0.0009620219 -0.00300768 0.0021834082 -0.0028403106 0.0013867328 -0.0013204354 -0.0015905062 -0.000276966 -0.0023592652 0.002857347 -0.0024196424 -0.0031275859 0.0018725155 0.0013128553 0.0015857184 0.0006842726 -0.0013612235 -0.001648246 0.0007208734 0.0026183827 -0.0018631868 -0.0007868937 0.00049372786 0.0022721884 -0.0021677895 -0.0016520155 -0.00072799186 0.00059971435 0.0018466037 0.0019699088 -0.002942863 0.0025946726 -0.0008926689 -0.00084766233 -0.0030994283 -0.0019482822 0.0031479737 0.0011965622 -0.0026525373 0.00087054685 -0.0022649616 -0.002964467 0.0012008075 0.0005758581 0.00042275665 0.003007268 0.0020653792 -0.001608896 0.000779699 0.00086668937 0.0007029079 0.002755726 -0.0022435708 -0.00066564564 0.00055143464 0.0020122153 -0.0002544384 0.002654403 -0.0017041971 -0.0029482918 -0.0024250776 -0.0012571439 0.0030400816 -0.0018646598 -0.0015259882 0.0030029265 -0.0024747145 0.0006854311 0.0018222623 -0.00256753 5.0997423e-05 -0.00076782843 0.0019821452 -0.0016354293 -0.0021137325 0.0033375632 -0.0013701178 0.0026371682 -0.002639788 0.0021590337 -0.0012203348 -0.0024988176 -0.00042321128 -0.00072574103 -0.00055496715 -0.0003800726 -0.0020868315 -0.0012593305 -0.0011615175 0.0026144716 0.0017399364 -0.0002509325 -0.0018361311 0.0016913256 -0.0029927595 0.0006383408 0.0015394555 -0.00061430014 -0.0015684369 -0.0027247663 -0.0026139219 0.0022492218 0.0013341891 -3.6275676e-05 0.0033039853 -0.0029142466 8.7688946e-05 -0.00015441065 -0.0026132148 -0.0031595603 0.0024049764 -0.0011728462 -0.0025886456 0.0028142226 -0.0021073665 -0.0011957164 0.00069602765 -0.0010388514 -0.0027194463 -0.0014183919 -0.0031456852 0.0002677043 -0.0014318058 -0.00014857917 0.0008558511 -0.00063498045 0.0030612296 0.0022935206 -0.00041541178 -0.0002929272 0.00035710525 0.0021559922 0.0029867417 -0.0008553228 -0.00063863123 -0.0010706815 0.00016248938 -0.002057385 -0.000709287 -0.0030506838 0.0002149255 0.00065811345 0.0013544678 -0.0008159237 0.0017021388 -0.0021214194 0.0030366743 0.00026706295 0.00084349787 0.001456284 0.00019170536 0.0011059792 0.0004366491 -0.003194911 -0.0010010545 -0.000769619 -0.0030779382 0.0011637191 0.0015567017 -0.00078185106 0.0025415479 -0.00051105605 -0.00019584535 0.002060007 -0.0029006912 -0.0024389317 0.0024611296 -0.0021438021 0.0029239445 0.001920065 -0.0027213925 0.0027036348 0.0021131446 -0.0022295364 -0.0029787605 -0.0030193767 0.0013374296 0.0020200114 -0.0007773179 0.00029405017 -0.0027574226 -0.0016881735 0.0014257454 -0.0029432809 -0.0031200931 0.00023426568 -0.0029193715 -0.0023578482 0.0015127873 0.0025870956 -0.0025399667 0.0026284035 0.003219941 0.0015046182 -0.0015252457 0.0031772873 -0.002488369 -0.0015509316 0.0005856765 -0.002854762 -0.0034998995 0.00083831936 0.0028633105 -0.0017421001 -0.0015756409 0.0012542146 0.00023548566 -0.0029439335 0.002259942 -0.0010455817 0.0010298794 0.0011897791 0.0031075878 0.0028683734 0.0022279152 -0.0026592694 0.00035332024 -0.0002473146 0.00030147444 0.0030557574 0.0016434921 -0.0032114827 0.0033167761 -0.00035795642 -5.99655e-05 0.0016605804 -0.0020456167 -0.00029567382 0.0004777207 0.0024267966 0.0014087891 -0.0005081852 -0.0028081029 -0.0013005764 0.0029648596 -0.0031718728 0.0030538344 -6.796689e-05 -0.00017945527 0.003303133 0.0029388005 0.0026742648 0.003150654 -0.0032563652 0.002562775 -0.003277911 -0.002697919 -0.002972529 0.0007692883 0.002422036 -0.0022980152 -0.00088999525 -0.00083194306 -0.0014014456 -0.00044292014 0.0015997485 0.0014741246 -0.0009877579 -0.001107661 -0.00081397174 -0.0012667996 0.001280666 0.0034485708 0.0026305702 -0.0026089635 -0.002094352 -0.0030544933 -0.0020267724 0.000965888 -0.0019567981 0.0006129966 0.0031349626 0.0010237054 0.00061911705 0.0031639114 0.0020840392 -0.00030664794 -0.0018205225 -0.00031247313 0.0022929772 0.0026191245 -0.0013724918
american 0.0033390918 0.0009907096 0.0016109655 -0.0018116208 0.0014107715 -0.00017480733 -0.0030433189 0.002086309 -0.0029496322 -0.0022534071 0.0009780435 0.0029633583 -0.00067158305 0.0022287648 0.0014982404 0.0011707861 -0.0019373957 0.001650662 -0.0028465285 -0.0014652864 0.0016963271 -0.0026697274 0.0020836014 -0.0011834353 0.00030614823 -0.0023649833 -0.0022947325 -0.0011350173 0.0027268773 0.0016296144 -0.0033083658 -0.0024081573 0.0011189963 -0.002950658 0.0020972423 0.0021328977 -0.0029858127 0.0026954592 0.0026512442 -0.00058080646 0.0004649368 -0.0018915844 0.0020330078 0.0024292013 0.0015507404 -0.0027214945 0.00169696 -0.0008601533 -0.0007644391 0.0022298503 0.00051787164 0.0016539405 -0.002257843 0.0016944555 -0.0011700153 3.047282e-05 0.0021333992 0.0012612105 0.0025829216 -0.001275729 0.0010836021 0.0023293823 -0.0010705513 0.0019974909 -0.003153791 0.003099435 0.0010698196 0.0017929348 0.0014466356 0.0015003608 -0.0010575707 -0.001966805 -0.00049940794 0.00033341107 -0.0010438483 -0.0027881411 -0.0023209616 0.002863054 0.0030439547 0.002121115 -0.0015473478 9.077528e-05 -0.0027294646 0.002583984 0.00021747865 0.002500049 -0.0019104481 -0.0009895143 0.0011227881 0.0012165726 -0.002030373 -0.002613566 0.00075244746 -0.002956877 0.0021532583 0.0019634517 -0.001077036 -0.002100903 -0.0029028112 -0.00050323945 0.002301391 2.8430202e-05 -0.0026259797 0.002977622 -0.002772673 0.0017682463 0.0020902553 0.00038426925 -0.0031358365 0.0021102952 -0.0028954244 -0.0017613985 0.0031335636 -0.0026587015 -0.0023244482 -0.0015841691 0.0010889609 0.00064183417 -0.0016902313 -0.001247892 0.0029968508 0.0033543871 0.0033970156 0.00028364445 0.0012514272 0.00041707195 0.0006410771 0.0014744598 0.0007603002 0.0001106791 -0.000988813 -0.0019995011 0.0026623663 -0.0021623708 0.0010700949 -0.00022197345 -0.001265089 -0.0017612582 0.0009300682 -0.0021803759 -0.0023598247 -0.0010793561 0.0015170276 0.0021879696 -0.0003537225 0.0023312985 -0.002801258 -0.0016707964 -0.0025280607 -0.0021103323 0.0024511423 -0.003331916 -0.0029989204 -0.0033936931 0.0030686168 -0.0007494611 0.00026660116 -0.002246381 -0.00083116547 0.00024553848 -0.0007341938 -0.0022908652 -0.002397866 0.0011285186 -0.0034798752 0.0004721964 -0.0005640732 0.0027835218 -5.368055e-05 0.0023445738 -0.0024461106 -0.0024937072 0.0019196612 0.0004311028 -0.0017035826 -0.00088397454 0.0029311585 -0.0031958644 -0.0011744804 0.00020093152 -0.0002075428 0.003334435 -0.0007438202 -0.0025513282 -0.0025543058 -0.0032660833 -0.0025235876 -0.0018820129 -0.0020094884 -0.00058667513 -0.00018747523 -0.0015584258 0.00050841435 0.0012164754 0.0031342737 -0.0016300634 0.0016429484 0.002252762 -0.0011872242 -0.0024911694 -0.0013224587 -0.0021925254 0.002076263 0.0030163254 0.0027198833 -0.00290961 0.0015918082 0.0016155548 0.0017523956 -0.002867243 9.5243515e-05 -0.0023759552 -0.0030436104 0.0008084554 0.0034483923 0.0018887343 -0.0024181847 0.00039403417 -0.0015556387 0.0032005482 -0.002789756 0.0032223556 -0.00229407 -0.002376267 0.0005690117 -0.0003220712 -0.0027786067 -0.00016862105 -0.00033462112 -0.0019142977 0.0020683247 0.0010152351 0.0025303871 0.0025843412 -0.0023103165 0.0016668707 0.0018904037 0.0019960369 0.0017997659 -0.0018859403 0.0014603822 0.00036262127 -0.00019201139 -0.0021516618 0.00048886996 0.0016137989 -0.0030347004 0.0029499468 0.0009795201 0.00014337315 -0.0011243124 0.00013347159 0.002066746 0.001569971 -0.0022340922 0.0025567727 3.767433e-05 -0.002606241 0.0026662247 0.001600244 0.0013920114 0.0027478037 -0.0024546494 -0.0021177467 -0.000772818 -0.0013699604 -0.00047418228 -0.00014081599 -0.0029947339 0.00063404435 0.0007868876 -0.00017207378 0.0016136453 0.00043898774 0.0022784485 -0.00066220626 0.0029486043 -0.0005855805 0.0008210308 -0.001353444 0.0023275388 0.0010485539 8.1434184e-05 0.0029830304 -0.0026267997 0.0032033778 -3.749592e-05 -0.0007140251 -0.0013456891 -0.0028512373 -0.0008641781 0.0011589135 0.0024277405 0.0029765253 -0.0027191548 0.0033403034 -0.0028933443 0.001101484 0.0028498932 -0.00090433523
antisemitic -0.0026348294 -0.002633488 0.00032829697 -0.0002047752 -0.0031942015 0.0008516781 0.0008689778 0.0017949742 0.0015309862 0.0010160835 -0.0032517079 0.0018081832 0.0014512977 -0.0026511592 -0.00084521825 -1.4274179e-05 -0.00015181916 -0.00034892626 -0.0018956254 -1.3132482e-05 0.0013847015 -0.00019068291 0.00037229276 0.00072125666 -0.0011281072 -0.00259834 0.0028954041 -0.0032916847 -0.000934518 -0.00053263333 -0.0026224481 0.00045140862 0.0026589753 -0.0005823903 0.0026178644 0.00014415939 -0.0018543208 -0.00080994074 -0.00023883344 0.0021040263 0.0022601918 0.0020674034 -0.002035932 -0.002435617 0.002152385 0.0009783113 0.0018242246 0.00026455507 0.002588251 -0.0028177733 0.003235607 -0.002652274 -0.0006647508 0.00207527 -0.0030730064 0.0015672353 -0.0023011407 -0.002340831 0.0008250256 0.0006101051 -0.0010193272 0.0025289557 -0.0023365724 0.00019137615 0.0028851174 0.0007692021 -0.002396554 0.0011975636 -0.0017709234 0.00017570936 0.000996863 0.0026281776 0.0026409854 -0.0017222046 0.0031143185 -0.0018014796 0.002421015 -0.0025962363 -0.0026688734 -0.00026917717 -0.0028478336 -0.0012752215 -0.00010321928 0.00024107807 -0.0033075113 -0.0021286546 -0.0025569089 -0.00017105284 0.0018509956 2.7865497e-08 0.0034140483 -0.0013801095 0.002767074 0.0020674798 0.0028894297 0.00014986622 -1.8650855e-05 0.00048946345 -0.0033891082 0.0031221476 -0.00083301216 0.002567793 0.00068023 0.00095772935 -0.0003405361 -0.0033785428 0.00039547967 0.001000593 -0.0034438246 -0.00125365 -0.00096071814 -0.0017511995 0.0013056189 0.00079265 0.0016067324 -0.0021454962 -0.0020404921 0.001585233 0.002374234 0.0017550896 0.001726335 -0.002366979 0.0027810037 -0.0023581109 -0.00265508 0.0028152124 -0.0007514077 -0.0032389401 -0.0009965346 0.0020240187 -0.0009045567 0.0017894105 2.7862343e-05 0.0012413219 0.00046523797 -0.003057982 -0.0012724127 0.0028587775 0.00039806595 -0.002117761 0.0024604828 0.002340032 0.0023972206 0.00010633835 -0.0029570828 -0.0012167115 0.0015067228 -0.0022418264 0.0032986884 -0.0033608186 -0.00270554 -0.0019303454 0.0019359356 -0.0026112364 0.0028892385 -0.0031997098 0.0011021714 0.00095929095 -2.5926586e-06 0.003342403 0.0017754389 0.00024066334 0.0013931992 0.0023269483 0.0007992941 0.003207483 -0.0003790474 -0.00278941 -0.0014317175 -0.0003147427 -0.0025118627 -0.0004928799 0.0026991377 -0.001611804 0.001726234 0.0014592046 -0.00025949374 0.00026795268 0.001959843 -0.0023097433 0.0012087913 0.0030822556 -0.0012470881 -0.0026496523 -0.0030526703 -0.0029652095 0.0013757889 0.0018200235 0.0023480773 -0.0005807088 0.0003285683 0.0010195264 -0.003443968 -0.0031985205 0.0015912377 -0.002857492 -0.0011036058 -0.0015708156 0.0020211325 -0.0011361818 0.0032277186 0.0002592907 -0.0017532712 -0.00130019 0.00037310255 -0.0018248515 0.0023927595 0.002943047 0.0013878152 -0.0025178692 -0.0019266391 -4.1454674e-05 -0.00038552828 -0.0018889115 0.0027245234 0.0018728253 -0.0014422542 0.0005350239 0.001525778 0.0007055563 0.0029547617 -0.0004465232 -0.0023232026 -0.0003322538 -0.0027744782 0.0032033874 -0.0028234315 -0.0004879299 -0.00109637 0.0011476674 0.0017891 -0.0027867372 -0.001645546 0.00023021834 0.0012766088 0.001774028 -0.00046116367 -0.00014898882 -0.0025820574 0.0012926495 -0.0025189656 0.0010144549 -0.0013056857 -0.002604023 0.0023129866 -0.00029708922 -0.003177229 -0.0030828714 0.00017563306 -0.0025926472 0.0012651013 0.0011547484 0.0011605179 -0.0018946218 0.0024740847 -0.0030135096 0.0026645975 -0.00013980296 -0.0006958649 0.00126405 -0.0007138079 -0.0014013543 -0.00076733454 -0.0022000796 -0.00020110901 -0.001809915 0.0015669758 -0.0031636527 -0.0016116351 -0.003044984 -0.0032196702 -0.00018939278 -0.0027006085 -0.0019379897 0.0011125328 -0.00038093576 0.0011423244 0.0027152763 -0.0033694268 0.0020027072 -0.0024647792 0.0021969478 0.0024353906 0.0029246742 -0.0026547613 0.0010662181 -0.0028244618 -0.0003802954 -0.0017273687 -0.0027228838 0.0015747828 0.0016778829 -0.0011747921 -0.0026321628 0.0013537657 -0.0010868425 -0.0029278276 -0.0015585823 -0.00059242523 0.0028702526
killed -0.0021312528 0.0026073013 0.0019789238 -0.001562403 -0.00062286353 -0.0010693537 0.0011858963 0.00021844216 -0.00089242 -0.003110893 0.002169392 -0.0033270116 -0.0028545088 0.00037871583 0.0008179428 -0.0001601405 0.00025413663 0.0008581719 0.0005260634 0.0024549772 -0.0012468048 -0.0023698471 -0.002488771 0.0026565366 0.00091731845 -0.001869809 0.0019509144 0.0027985873 0.002512826 -0.0024535812 -0.0017622468 -0.0008490039 -0.0022118348 0.0014636366 0.0017475617 -0.0019520542 0.002532086 -0.0027313705 0.0020776608 -0.0015054012 0.0005343865 -0.001070858 0.0010942419 0.0024299696 -0.00027549794 -0.0015133183 -0.0028018078 0.0013557414 0.0013814946 0.002438942 -0.001498061 -0.0031441215 0.002141442 -0.0015362849 0.0015065767 0.002856256 -0.0012748248 0.0004802187 -0.0011071346 -0.0021511205 -0.0020053661 -0.00017768858 -0.0025186357 -0.00060115586 -0.00085626164 0.0023308136 0.0003088123 0.002005375 0.0011734449 -0.0011895465 -0.0016524353 0.0032986703 0.0025633946 -0.0031260273 0.0017125425 0.0027641722 0.0028933005 -0.0026123975 -0.0007176365 0.0005078589 0.000788964 -0.00066690217 -0.0014717833 0.0024718866 0.0023649076 -0.000104935425 -0.0020358523 -0.0014977274 -0.0015613171 0.0014464343 0.00028382047 -0.00087713386 -0.0029733086 -0.00045911383 0.002339891 0.0022436208 0.0015722866 -0.0011397545 0.0029092696 0.00031114 0.00033642483 0.0021096794 -0.0021523435 0.002171278 0.0033848186 0.0011455264 0.0010487612 0.0014477097 -0.00085386605 -0.0026549832 0.00026449733 0.00021489376 -0.0023191867 0.0007545414 0.002011635 -0.0023518472 0.00078883726 0.002634056 -0.0027380732 0.0010328336 -0.0027484933 -0.0025724808 0.0024286695 -0.0025713302 -0.00051694474 -0.0026694108 -0.0025429565 -0.0024927359 0.00014410367 0.0006155208 -0.0025955013 -0.002509275 -0.0010332718 -0.00075215177 -0.0019436292 -0.0013303456 0.0011446836 0.00094612123 0.0020979664 0.0012292897 -0.00021214013 0.0008001004 0.002978558 0.00079960935 0.0007652704 0.0003064113 -0.0033393116 0.0016942787 0.0017704844 -0.000112469344 0.0030848074 -0.0021454107 0.0009932644 -0.0026945935 -0.002972605 0.00075612107 0.0014995129 0.0018466199 -0.0028986253 0.0016421808 0.00088983204 0.0015505217 -0.000530037 0.0020937186 0.0021945878 -0.0026993155 -0.0032453772 0.0023316902 -0.0002480726 -0.0028709304 -0.0014808468 0.00041020697 0.0028741707 -0.0004589648 -0.00034173956 -0.0024643457 -0.002572433 0.00038915596 -0.00010729899 -0.0026916924 0.00017904729 -0.0028654896 -0.00093816966 0.0012678542 0.0003665966 0.0026816672 0.002309245 -0.00025650475 0.0016051423 0.0019363066 0.002916562 0.003036409 0.001477392 0.0014742222 0.0024735562 -0.00063526875 -0.0019266978 0.0028018428 0.00041635122 -0.0016839821 -0.00044459908 -0.0016683972 0.002994842 0.0010377356 0.001365512 0.002119582 0.0026514034 -0.0016710161 -0.0022145675 -0.0013217547 -0.0011318305 -0.003227147 -0.00024999448 -0.0027560436 0.003367597 -0.001403414 -0.0021668677 -0.0030540316 -0.0014029427 -0.0033059597 0.00037385462 0.0017931956 -0.0011056795 0.0025129146 -0.00061207026 -0.0024914125 -0.0009803533 -0.0010301383 -0.0025415542 -0.0030869904 -0.0011970673 -0.00058603165 0.0014410259 -0.0024574683 -0.0017226754 0.0005206567 -0.00057656347 0.00122579 -0.0005651234 0.0011870057 0.0027194265 -0.002727154 0.0010616296 0.0020024164 -0.0001767542 0.0021071767 -0.0017834604 -0.0014525377 -0.002621297 0.003318507 -0.0031440207 -0.0010839034 -0.00010543124 -0.0016035058 0.00295945 -0.0023407275 -0.0024751485 0.003203297 -0.0030284617 0.0031560662 -0.0011967629 0.0019878189 -7.2384406e-05 -0.0015062215 -0.0026192348 -0.002098702 0.0023309786 0.0021326272 -0.00012835396 0.0021394247 0.0012366314 0.0013754618 0.00090376916 -0.0032775293 0.0033195824 -0.002665513 -0.0008862427 0.0004197253 0.0015717456 -0.0031393988 0.00075287797 0.0021330896 -0.0029921217 0.0032578227 -0.001745264 0.0031352302 -0.002435196 0.0022655893 0.0031855751 -0.0029066151 -6.9521975e-06 -0.0023617886 0.0029315648 0.0031702311 -0.0018468719 0.00056806655 -0.00071659446 -0.00272316 0.00041915025 -0.0033746934
if 0.00090735446 -0.0024229316 0.001829269 0.0026012042 -0.00088921754 -0.0015341456 -0.0030903337 0.001974372 0.0010177064 0.0028420691 0.0011290452 -0.0010790161 0.0011944879 0.0028013238 0.0029294475 0.0023931332 -0.002722511 -0.0025508273 0.002367564 -0.0025066012 0.0009740139 0.002711493 -0.00092243083 0.002256877 -0.002469293 0.002237522 0.0016957518 0.0010836789 -0.0028079462 0.0029398787 0.002690181 -0.0007141838 0.0013583255 0.0020228883 -0.0006776633 0.0018863505 -0.0012586142 -0.0005622556 -0.0003633318 -0.0013905927 -0.00034200246 -0.0025546572 0.0011890205 0.0029028768 0.0017471524 0.002304296 -0.0015453538 0.0017542941 -0.0022449992 -0.001513498 0.0032240232 0.0022301765 -0.001794624 -0.002060104 0.0024196785 0.0010601771 0.0022155344 -0.002324858 -0.00022619813 -0.000310209 -0.00015352473 0.0006294021 -0.0022507734 0.0015314411 -0.00092942885 0.0028788112 -0.00046832868 0.0030875716 -0.00037124706 0.0017282838 -0.0025101502 -0.0029869054 7.4573785e-05 -0.00084371254 0.0032754326 0.0015391049 -0.002017512 0.002525843 0.00013972497 -0.0030683044 0.0017612212 -0.0007915118 -0.0030604342 0.003209206 0.0024609342 0.0028768315 8.2262195e-06 0.002515309 0.0018683956 -0.0022832518 0.003219143 -0.0013064094 -0.0031821406 0.0028720999 -0.0015998862 0.0029193743 -0.0024684118 0.0029198718 -0.0020795316 0.0014342779 0.0032356337 0.001462782 -0.0006737068 -0.0016189944 -0.0031548708 0.0013247529 0.002396185 -0.001528271 0.0017882858 0.0023113221 -0.0032337673 0.0006077615 -0.0023456758 -0.0013788801 0.00047593142 -0.0023107198 -0.00143948 -0.0025169416 -0.0021990715 -0.0024189036 0.0034167909 0.0028673427 1.6817407e-05 -0.0009217739 0.0020120535 0.00042510382 -0.002905702 -0.002467353 0.0003606258 0.0026835282 0.0011164912 0.0034178153 0.0021913168 -4.3444335e-05 0.0029711106 0.0030734236 0.0026411738 0.0030358569 -0.003242586 0.000952943 -0.0025070123 -0.002519755 -0.002828315 0.0012174724 9.2937706e-05 -0.0021963443 0.0016184248 0.0025389348 0.0015040549 0.0025396536 -0.0013993867 -0.002340538 0.001241377 -0.0010659508 -0.002384793 0.0013218233 -0.0011653203 -0.0018949778 0.0008856877 0.0024713264 0.002234703 0.0001885119 0.0026019781 0.0011764345 0.0019636669 -0.00022392496 0.00074791437 0.002086258 -0.0032131854 0.002171141 0.0003379908 0.0020635198 -0.00041779483 -0.0008088288 -0.0018765425 -0.000950243 -0.0008652158 -0.0018280721 0.00037393087 0.002555247 0.0016244866 -0.002426504 -0.0025261051 -0.0011038412 0.0012823228 -0.0030615306 0.002108244 0.001167801 -0.0009756159 0.0029814884 0.0027035307 0.00025967817 0.0014505147 -0.003165415 -0.0028681895 -0.0010652902 0.003030711 0.0009201428 0.0019201668 -0.002291322 0.0012725642 0.00020392309 -0.00035641776 -0.001200625 0.0016120811 -0.0030760316 0.0016235095 0.0018252962 -0.00092863064 -0.0014707184 -0.0023825653 -0.0021973364 -0.0017644063 0.0010357116 -0.0014858556 -0.0006284777 -0.00303961 -0.0014688487 -0.00043939642 -0.0027453224 0.0012071242 0.0032321156 0.001344922 0.0005915754 -0.0015919758 -0.0004433757 0.00079568947 0.0006053774 0.00277079 -0.0001987856 0.0024548767 0.0018897592 0.00081123185 0.0025378787 -0.0017112588 -0.0012564736 0.0023142113 0.00292233 0.0011032645 -0.0015842308 0.0025857773 0.00084553106 -0.00024356564 0.0029558693 0.0014416559 0.0011783515 1.1350537e-05 -0.002877584 -0.0010357101 0.0009741362 -0.0018449125 0.0023791438 0.002517953 -0.003015631 -0.0019868976 -0.0020332457 -2.6961074e-05 -0.0004924633 -0.00092808565 -0.00080441276 0.0013487957 0.003301633 -0.0014743379 -0.002917586 0.0011381998 -0.0021631238 0.0022802602 0.00091170985 -0.0027956471 -0.0025912724 -0.003128983 0.00084010017 0.0009185881 0.0008556777 0.00028925866 0.00042565595 0.0011098635 -0.00056037836 -0.002860051 -0.00027003023 0.0014418104 -0.00083721 -0.0008045625 -0.0006825236 0.0024028586 -0.001030822 0.0029098645 -0.0012487625 -0.003274254 -0.002002259 -0.0015552727 0.0006270641 0.001884794 0.0006913053 0.0031497076 0.0005508413 0.001895911 -7.544985e-05 -0.0005693156 0.002001417
ukraine 0.00068862434 0.0028343927 -0.0028125928 -0.002866458 -0.00019678184 -0.0007736089 -0.0007164496 4.4149405e-05 -0.0016568535 -0.002721177 0.002745031 -0.0011979932 -0.0009403316 -0.0006377161 -0.0005092427 -0.0031868566 -0.0005300842 -0.00044894006 0.002856055 -0.0026628454 -0.00164659 -0.00059165666 0.0010727908 -0.0020010395 -0.0016683642 -0.002621343 0.001739487 -0.0029085588 -0.0011571759 2.6702968e-05 0.00043817348 -0.0034578356 0.0028961978 -0.000757209 4.4337172e-05 -0.0028943906 -0.0026333653 0.0011550739 0.0013843246 0.0010303754 0.001870943 -0.002305763 -0.0004171352 -0.0010090172 -0.00037530417 0.0015885722 0.0004985475 -0.0023942385 0.0010814085 0.0022050145 -0.0020684968 0.0011724053 -0.0015374839 0.0028996412 0.0013819088 0.0008140868 -0.00032317196 -0.0030753806 0.0029598803 -0.0005671158 0.002435944 0.0011732524 -0.002758213 -0.00016909951 0.00089411845 -0.0007908002 0.0031470503 -0.0016735417 -0.0024751232 0.0012471508 -0.001170657 -0.0022642636 0.00083280343 0.0016568995 -0.0018608448 -0.0014362854 -0.0024959054 0.00057459326 -0.0016399069 0.0028881317 0.0001479073 0.00052446994 -0.0010737114 0.002694798 -0.00020170564 -0.002701254 -0.0025534022 4.139116e-05 0.0027013926 0.0010337211 -0.0016815258 -0.00233001 -0.0032455446 0.0013138661 -0.0030745235 0.0011403192 0.0006877577 -0.000391934 -0.003415878 0.0020403499 -6.360491e-05 -0.0032859878 -0.0024773432 0.0028614695 0.00068530586 -0.002806434 -0.00033393237 0.0018582335 -0.003236537 -0.0022503233 -0.00053203077 -0.0033153095 0.00013287835 0.00071808044 0.0029870525 0.00034481444 0.00039937295 0.0016270091 -0.001305737 0.0023171017 0.00012995995 -0.00016985291 -0.003164767 0.00011672651 0.0022120294 0.0005629458 -0.0026470502 -0.0012039419 -0.0019858817 0.0020517004 -0.0021305175 0.0018610094 -0.0017496021 -0.002387535 -0.0024706114 0.0013211109 -0.0029878484 -0.0020034853 -0.0024536382 -0.0016103395 -0.001265083 0.00039147947 0.0021580877 -0.0002790592 -0.0017595456 0.00047295616 0.0017240803 -0.001819706 -0.0017345733 0.0016504836 0.0021043126 -0.0027302378 0.0026696604 -0.0033445286 -0.0024439057 -0.0018964607 0.0005607134 -0.00012450013 0.0011629494 0.0024901112 0.0016853185 -0.0009439631 -0.0023546699 -0.0026043153 -0.0003378237 0.0032684836 -0.0025013194 0.0012472395 0.0014866764 -0.0012567028 -0.0024039613 -0.0018028655 -0.0016403059 -0.0022832714 0.001963236 -0.0025993106 -0.0010040024 0.0013814287 9.0177615e-05 -0.002637729 -0.0016390528 0.0013030977 0.0008026937 -0.000775251 -0.0002560904 0.0008742959 0.0005518499 -0.0007960788 0.0017596914 -0.002621396 0.0021260022 -0.0033370992 -0.00089047075 0.0021966444 -0.0011549008 0.0021115458 0.0017665048 -0.002587556 -8.2800216e-05 -0.0015405046 -0.0027920643 -0.0002737163 0.0021048267 0.0028512578 -0.0017132441 -0.00089503516 -0.0020916674 0.00035170504 0.00081908074 -0.0033173324 0.00084816903 -0.0029854786 8.221877e-05 0.0015549238 -0.0016982818 -6.585814e-05 -0.00077673374 -0.0031239956 -0.00091929873 0.0014073155 -0.0027871632 -0.0019927986 -0.00026594 0.0026260926 0.0004913481 0.0031953622 -0.0025237845 0.0030081926 -0.0017034966 -0.002034484 -0.0025494157 0.0005891816 -0.0010654123 0.0025950158 -0.00020513275 0.0008854502 0.0019598086 -0.002842019 -0.0006562622 -0.001761835 -0.0028669257 0.001094567 0.0007076908 -0.00080147345 -0.0006433005 -0.0023622378 -0.0010804671 0.00050058996 0.0025716121 0.0024922434 -0.0011845258 0.0012045784 -0.0008360541 -0.0015907742 -0.0013755824 -0.0020629603 0.0013175964 -0.0025408156 -0.002678782 -0.0015503376 0.0025629855 0.00068548415 0.0018623437 0.0025962854 -0.0021799149 -0.0015832899 0.0025951837 0.001679444 0.0014467842 0.0029879136 0.0029072845 -0.0008484159 0.00033852394 0.0018053992 0.0031352488 0.0033586656 -0.00267495 -0.001723541 0.0015219974 0.00026675695 0.00018339633 0.0025459654 0.0020698092 -0.0023726563 -0.0008863161 -0.002852102 0.0021996286 0.0009612643 -0.00072946545 0.0007355537 0.0024992835 0.0028534252 0.002193089 0.0010311028 0.00062686834 0.0029055486 0.00045484307 6.690834e-05 -0.0030907143 0.0007920724
make -0.0028339403 0.002287315 -0.001999412 -0.00052049005 0.0002913954 -0.000784052 -0.0029431325 0.0016104726 -0.002147474 -0.0030073773 0.0013133859 -0.00034597144 0.0022010067 -0.002419796 0.000108527165 -0.0003713253 0.0020101792 -0.0032428496 0.0019459222 -0.0030216996 -0.0026837692 0.00030093768 -0.0007905473 -0.0012957968 -0.0015549705 0.0014191099 -0.0032561861 0.000364186 0.0013117975 -0.00018282072 -0.00021727713 0.0022587015 -0.0032013345 -0.0030818996 0.0013764903 0.0029623315 -0.0024948923 -0.0029194718 -0.00019075205 -0.002990677 0.0006027283 0.0030958552 -0.0020638914 -0.0023681412 0.003087798 -0.000104577055 -0.001217375 -0.0008034196 -0.0029294824 -0.0014147671 -0.0014337474 0.00016749739 0.00016333973 0.0025144417 0.0022873122 -0.0003646268 -0.0033154907 0.00078997994 -0.0019696376 0.0030592668 0.0012191513 -0.00043722065 0.0022232533 -0.0011225899 -0.0012494752 -4.250444e-05 0.0027119545 0.0019889963 0.00045179765 0.0012496209 -0.0009808593 0.003140427 -0.002212885 -0.0011886957 -0.0018036537 0.0029389171 -0.0011683077 -0.00074163324 0.002330928 -0.003148285 -0.0010973455 0.0008618537 -0.0020358146 0.0031516175 0.00041073436 -0.0017291104 0.0015386076 0.0026121151 0.0004467465 0.0022657353 -0.0021936563 -0.0013209056 0.0033692883 0.0019148124 0.00067149225 -0.0010495316 0.0016111268 0.0006985303 0.0027054492 7.94942e-05 0.0028451392 -0.0019092034 -0.0025188443 -0.00045607926 0.0010822966 -0.00074481434 0.0018786357 -0.0027634068 -0.0031618483 0.0025678675 0.001913599 -0.001433375 -0.0013940099 -0.001126731 0.00014937676 0.0030711263 0.00028225803 -0.00068252825 -0.001021741 -0.0008043995 -0.0029442855 0.0023410346 -0.002961263 -0.0010748387 -0.0024320914 0.0030007951 0.0020062628 -0.0002460457 0.0013117596 -0.00079232233 0.0033237622 -0.0010773335 0.0016088696 -0.0013709732 0.003251379 0.003209369 0.0020340206 -0.00015469178 -0.00066565804 -0.003091079 0.0032106787 -0.002943811 -0.0022434918 0.0019884163 -0.00065418996 0.0026154728 -0.0028243703 0.0029987062 0.000824357 -0.002933269 0.0013468035 -0.0017971075 0.002067841 0.0021311892 -0.0029239384 0.0022355719 0.0016991923 0.0020145169 -0.0023838873 -0.0020310094 -0.002866965 0.001880965 -0.0015779226 0.0017555112 0.0013984345 0.0027374695 0.0007962529 -0.00033625675 0.00052718795 0.0011999459 -0.0030026564 -0.0019631372 -0.00026533773 0.0017175836 -5.439848e-05 -0.0032253934 -0.00021195407 0.00231019 0.0021580858 0.0010635116 -0.0016016033 -0.0011491008 -0.0007968403 -0.002118998 -0.002865745 -0.00015136524 0.00067156367 0.0017221582 0.0011610722 0.0027679373 -0.0022511687 0.0031237067 -0.0012527966 0.0002103217 -0.0013731235 -0.0013911059 -0.00056064274 -0.0026412231 0.0030404907 0.0015201928 -0.00089419965 0.00069228484 0.0025607788 -0.0019592082 0.0012213984 0.00022280593 0.00087741745 -0.00076687045 -0.0033576654 0.00189429 -0.00041271257 -0.0028240008 0.00021074753 -0.0020971093 0.002643391 -0.0023200193 -0.00059900153 -0.00038082965 -0.0015776455 -0.001216927 0.002562665 0.0006076465 -0.0032362998 -0.00013452514 -0.003169035 -0.0011275257 0.0017051076 0.0012413748 -0.0020571242 0.0005838558 0.0020470119 -0.0025320621 -0.0013248285 -0.00073468266 -0.0030138101 0.00077799836 0.0021384824 0.00085747207 0.00084411184 -0.00047408484 -0.00023661388 -0.0021393825 -0.00031611705 0.0021694887 0.0009877112 4.5351313e-05 0.0026324368 0.0010015105 -0.002477943 0.002549288 0.0032439958 -0.0030279378 0.0024492918 -0.0025308556 -0.0002893744 0.0015256848 -0.0017641515 -0.0026001716 -0.0026386052 -0.003369123 -0.002100119 0.0032473954 0.0010280795 -0.003163728 0.0027494577 0.0023819823 0.0026778297 0.0032444168 -0.0030248093 -0.00073542906 0.00067305355 0.0008579519 0.0015928101 -0.0025847678 0.0017864191 0.0034083973 -0.002895815 0.002603211 0.00093416666 -0.001440157 -0.0003583465 -0.0028217821 -0.002567449 0.001873938 -0.0010672894 0.0032984272 -0.0028479104 -0.002310249 0.0020835393 0.0027793811 0.0011439711 0.0025979697 0.0023160703 -0.0019776896 0.0030402862 -0.001904448 -0.000939583 -0.0021179228 0.0021662437 -0.0014887305
president 0.0010392875 -0.00038489676 -0.00047573727 -0.0018807778 -0.0019592603 -0.0014232089 0.0002026609 0.0008264936 -0.0010617446 0.00058162183 -0.0018822536 0.0032198082 -0.00023506563 -0.002378329 -0.00077332265 0.0025096652 -0.0002498997 -0.001728954 -0.0027355654 -0.0020049496 -0.0011840636 0.002627768 -0.0022902933 0.0004790728 0.0001845823 0.0013670564 -0.0028337755 0.0026390925 -0.001038674 0.0016247777 -0.0032083201 0.0015457136 -0.002768398 -0.0011616652 -0.0004894223 -0.0011451974 -0.00014822956 -0.00013850705 0.0015345409 -0.0007064072 -0.001453478 -0.0020468421 0.0027572294 0.0014317371 0.0031804636 0.0020108083 -0.0014692178 0.0028942688 -0.0023482698 0.0011653319 -0.0011661323 0.00018296759 0.0011488135 -0.0009931234 -0.0014571473 -0.0005031245 0.00019106783 0.0020774899 -0.0019187586 0.001581287 -0.0013305913 -0.0027612261 -0.0018147342 0.0006843967 0.0029036559 0.0027249772 0.0029214814 0.002307146 -0.0010624428 -0.000849416 0.00296698 0.0022326913 0.002205065 0.0021931161 0.00047888287 0.0008374633 -0.0029072703 0.0025890968 0.0030769657 -0.0022560952 0.00025915823 0.0027942483 0.0012962942 0.0025881422 0.0025761223 -0.0006349915 0.0028602153 0.0019421598 -0.00050964585 5.0602353e-05 0.0033629832 0.0018312148 -0.002146945 -0.0011342835 -0.0010159705 0.0011531352 0.00054250064 -0.003053413 0.00066542585 0.0033001974 0.00076387246 0.0015105357 0.00070794264 0.0027148658 0.0030382306 0.0009903355 -0.00088339375 0.0012449608 -0.0027680688 0.0027225658 -0.0015517344 0.0032425972 -0.003266167 -0.0007824211 0.0031380071 -0.0013321992 -0.00068579894 0.0016711972 0.0032356624 -0.00022790812 -0.0021478515 0.00341964 -0.0031430342 0.00037580298 0.001785317 -0.0026248782 -0.0018162199 -0.0031697869 -5.6494464e-06 0.0017107441 -0.0026852093 -0.00088170485 0.0027992174 -0.0016230043 0.0011699196 0.0012464694 -0.0012402117 -0.0018222724 0.0026634475 -0.0010392312 0.0030983344 -0.00094597676 0.0010027961 0.0019936303 0.00029110175 0.001391619 -0.0022060233 0.0027393869 -0.00050381944 -0.0015919285 0.0017335364 0.0031574194 -0.0019879218 0.00018468598 0.0014312975 -0.0008205917 0.00015845287 0.0028151223 0.0025745826 -0.0019869609 -0.0010026401 0.003233637 -0.00036195872 -0.0029761414 -0.0004138641 -0.002212035 0.00038559613 0.00027160646 -0.0014155301 -0.00132406 0.0028890187 0.0015676066 0.0009044479 0.0007365546 0.0027706553 -0.0016557038 0.002023172 -0.0004355887 -0.0025075178 -0.0033395528 -0.0006453584 0.002834967 0.0006464947 -0.0031078167 0.0004251147 -0.0011819417 -0.001295204 0.0028213782 0.0019291834 1.7332137e-05 0.0008094743 0.0003144914 -0.0034549998 0.00091917196 0.0024622816 0.0012493372 0.00080444507 -0.001320632 0.00082635536 -0.0025866358 0.0012736494 0.0009010304 -0.00018945264 -0.00027137037 0.00082308607 0.00069812656 0.00041312742 0.0029917462 0.0010956202 0.00038777667 -0.0009004643 -0.0021088193 -0.0031725194 -0.0011007893 0.0015511513 0.002311416 0.0001631043 -0.001892173 0.0010292053 -0.0014102907 -0.00012295722 0.0029366151 0.002614032 -0.00018011274 -0.001976265 0.0011577905 0.0033504763 0.002944411 -0.0007620455 0.0024922309 0.003212331 -0.0032153842 0.0027789178 0.00010025826 -0.0018079828 0.0013296431 0.0030004277 -0.002341446 0.0023364483 -0.0023864682 -0.0025768902 0.0017698235 -0.0016957828 0.0015755305 0.0024799933 0.0031242114 0.0019307368 -0.002892001 0.0010654437 -0.0028732875 -0.00013974025 0.0032968356 -0.001685204 0.0013841002 -0.0021347082 -0.0027243437 0.0028702698 0.0011601462 0.0022228519 0.0009061675 0.0005334813 0.0013052813 -0.0027753678 0.0020710418 -0.0015814279 0.0015558669 -0.0017862653 0.00039812824 0.0011664825 -0.00079109694 -0.002572334 -0.001954721 -0.0033308484 0.003221502 -0.001249496 -0.00028990474 -0.0029101751 -0.0015564861 -0.0017998525 0.00094263535 0.0020872746 0.0011759032 0.003252 0.00071158033 0.0032973548 0.002491835 0.00071683666 0.00075604825 -0.0024626409 -0.0006361602 0.0017752965 -0.002532742 0.00093618466 -0.0025823498 0.003383407 0.0001863852 0.0003420982 -0.0016921273 0.002185573 -0.002424733
